#include "mnist_coefficient.hpp"
using namespace dl;

namespace mnist_coefficient
{
    const static __attribute__((aligned(16))) int16_t l1_filter_element[] = {
           473,   2626,  -5975,   4910,   4711,   3669,   5372,   3680,   -741,    988,  -6865,   4911,   3045,   4446,   3744,   1776,    996,    158,  -6316,   4341,   4609,   4423,   5207,   3034,    393,  -7736,  -3732,   3276,    261,     38,    171,    171,   -193,  -7559,  -4348,   2992,   1903,   -207,   1570,   1986,    771,  -8373,  -4468,   2018,   1411,  -1566,   1135,    445,   -609, -26630,   2700,  -2511,   1645,  -4284,  -5342,  -3138,   -164, -26230,   1938,  -3730,    194,  -4435,  -4230,  -3930,   -532, -24623,     69,  -3681,    850,  -2996,  -5611,  -4608,  -1891,    182,  -3139,   2480,   2655,   5412,   4051,   5234,    201,   1164,  -1650,   3290,   3531,   6413,   3519,   5567,   -415,    994,  -2778,   3263,   3225,   6634,   1322,   6622,    295,  -4740,   1003,   2961,   5240,   1855,  -6604,   2533,   2553,  -5217,    983,   1839,   3720,   1934,  -6352,    150,    925,  -2345,    454,    913,   6146,   1611,  -5585,    125,   2820,  -4340,   2861,  -2333,   2431,  -5724,   1386,  -5033,   3682,  -5195,   4006,  -1372,   3471,  -5891,   2384,  -4988,   3412,  -4957,   1891,   -382,    840,  -4391,   1519,  -5016,    260,   5036,    993,   3180,   1011,   3893,  -4340,   4193,   1464,   3799,    182,   1277,   1750,   1981,  -2169,   5538,    306,   3462,   1050,   2129,    246,   4413,  -4218,   5349,   3318,   2420,   2736,   3717,   5156,  -1348, -21991,  -2884,   2815,   3871,   3539,   2632,   5588,   -723, -22748,  -2815,   3765,   4060,   2719,   2494,   4816,   -895, -21253,  -3164,   1230,   1096,    429,   -412,   2280,  -2154,   3209,   -175,   4281,   1350,   1962,   1007,    560,  -2261,   1910,  -1855,   3659,   1588,   2915,   1831,   2304,  -1364,   1296,  -1524,   1838,  -1317,   2778,  -5529,   5431,     87, -22423,   2775,   1565,  -1033,    171,  -5762,   4595,   -758, -24080,   3415,   -891,  -1061,   2718,  -5523,   3275,  -1287, -21751,   3144,  -5131,  -5735,   2977,  -7234,   2662,   -207, -11115,   4456,  -4227,  -5728,   5293,  -8849,   1660,    -63, -10457,   1759,  -5160,  -4849,   3837,  -8325,   2167,   -558, -10748,   2470,  -2765,  -7537,    416,  -1005,  -1164,   -485,   -604,   4598,  -5323,  -5900,    683,  -1230,    788,  -1539,  -1412,   3780,  -4062,  -8497,   -433,   -885,    -45,   -659,   -715,   4901,   1388,   2359,  -1955,  -2485,  -2892,   -797,   -218,  -2534,   1533,    495,  -2006,    324,  -1722,   1130,    263,  -2039,    117,   2733,  -2286,  -1461,  -1359,    470,   -449,   -821,   1304,   2113,   4844,  -7504,  -8984,   -814,  -1418,  -1822,    247,   1459,   6579,  -6280,  -9053,   -382,  -2893,   -231,   2767,   2803,   4847,  -7656,  -7279,    684,    -28,   -644,   4479,   1496,    542,   -919,  -5540,   -924,   4903,   7009,   4673,   3843,    -87,  -1206,  -5978,    257,   3167,   9006,   6191,   4205,  -1797,  -2323,  -5467,   -628,   2440,   8059,   2135,    535,  -3156,   4322,     78,  -1034,    719,  -2188,   -536,   1696,  -5402,   6417,  -2226,   -529,   1364,  -2588,   1150,    586,  -3601,   6125,    -95,  -1451,   1001,  -1803,   2292,   1263,   8128,    -62,   -336,    272,   3016,   -217,    355,    685,   8356,   -568,   -701,    367,   3401,  -1258,   1808,   3037,   9020,    892,  -1791,  -1494,   1263,  -1578,   5564,   3297,  -2143,  -8006,  -4016,   -291,   2526,   5940,   5541,   1547,    178,  -7437,  -4466,   -701,    243,   5967,   5354,   2491,  -1503,  -8087,  -3203,   -401,   1702,   5536};

    const static Filter<int16_t> l1_filter(l1_filter_element, -13, {3, 3, 3, 16}, {1, 1});
    const Filter<int16_t> *get_l1_filter()
    {
    	return &l1_filter;
    }

    const static __attribute__((aligned(16))) int16_t l1_bias_element[] = {
             2,      6,      1,      3,     -5,      8,      6,     11,     -4,      2,      1,      0,      4,     23,     10,     -4};

    const static Bias<int16_t> l1_bias(l1_bias_element, -2, {16,});
    const Bias<int16_t> *get_l1_bias()
    {
    	return &l1_bias;
    }

    const static Activation<int16_t> l1_activation(ReLU);
    const Activation<int16_t> *get_l1_activation()
    {
    	return &l1_activation;
    }

    const static __attribute__((aligned(16))) int16_t l2_depth_filter_element[] = {
           173,   4668,    573,   -619,  -9737,   -419,  -4354,   1380,   2338,   3220,  -2040,  -1215,  -4874,   4765,   7828,  -5541,  -1067,   2572,   -149,  -3262,    861,  -4668,   7911,   4077,   4052,   3958,   3538,  -6011,  -3990,   -842,   5257,   1165,   5197,   8306,   6239,   2530,  -8315,   6073,   8685,  -7310,  -2490,   1442,   1034,   1188,   -357,  -4875,   7101,   5639,   1355,  -9142,  -5836,  -2408,   3038,    423,   3264,   -647,   1108,  -2330,   3880,   2908,    639,   -130,   3200,    231,  -3312,   -484,    183,   3637,   2929,   -400,  -3808,    929,  -3188,  -1540,  -3297,   6685,  -1120,  19608,  -1754,  -4693,  -3073,   -178,   -213,   4145,  -2850,   9667,   5293,  -2660,    -16,   -309,  -2945,   3871,  -4356,   3041,   4578,  -4913,  -6057,  -4686,  -6077,   7496,  -4897,  25133,  -4769,  -8184,   -560,  -4812,   5881,   -394,   3773,  19491,   4974,   2749,  -6593,  -7932,  -2710,    -12,  -1359,   -495,   7032,  -4086,  -7022,    940,     82,   3746,   2119,  16105,    929,  -2468,   -248,   4542,   2640,    850,   5167,    961,   -725,   4341,   4125,    140,  -2991,   6394,  -4529,   1705,  -2949,     83};

    const static Filter<int16_t> l2_depth_filter(l2_depth_filter_element, -13, {3, 3, 16, 1}, {1, 1});
    const Filter<int16_t> *get_l2_depth_filter()
    {
    	return &l2_depth_filter;
    }

    const static Activation<int16_t> l2_depth_activation(ReLU);
    const Activation<int16_t> *get_l2_depth_activation()
    {
    	return &l2_depth_activation;
    }

    const static __attribute__((aligned(16))) int16_t l2_compress_filter_element[] = {
         -2148,   8895,  -1870,  -7231,   -901,  -3406,   -407,    554,   4038,   5329,   5998,   3357,  -6767,   2938,  -2804,  -6624,  -5762,  -2603,  -2948,   1134,   2728,   7769,   5854,   3415,    735,   2759,   1578,    791,  -4713,  -2682,  -1798,  -3358,   1524,  -3607,    279,   -930,    849,   1740,  14048,  -6545,   -957,  -2832,   1474,   4459,   4570,   1495,  -1464,   1293,  -8800,   1146,  -1741,  12095,   7698,   4559,  -9246,   3115,   4946,    556,  -3406,   1703,   2739,   2077,  -2368,  -6059,   -603,    393,   3859,  -3178,   5346,  -3424,   6166,     91,  -2948,   5909,  -5850,  -3618,  -3410,  -1004,     22,   6118,  -5752,  -3883,  -2220,   2300,  -2299,   -845,  -1186,  -5856,   5166,   2053,  -8634,  -4472,  -6794,  -1691,   6480,   2009,  -6811,  -3809,    350,   4614,   1460,   1143,  -3966,   1214,   7015, -29479,  -1251,   4982,  16284,  -3814,   3583,   8612,   1730,  -2352,   9111,   -612,   6053,    890,  -1110,   1177,  -5967,   3739,   1314,   2070,  -1966,   -487,   2206,   1772,  -7332,    374,   -125,   5224,    574,  -1481,   -160,  -1656,     57,  -9634,  -1642,    476,  -5320,  12514,   9508,   3865,   2878,  -2353,  -2428,   7412,    103,  -3380,   -418,   3020,    788,   1965,   -464,  -2823,  -3013,  -8250,  -3249,    -78,  -2281,  -4072,   2917,   4463,   2607,  -1855,  -2538,   4608,   -455,   1892,   6170,   3322,   2698,    815,   -338,   2967,    875,  13838,  -9117,  -2546,   7767,   1889,  -1038,   2800,   2327,  -2404,   2055,    321,   5422,  -1357,   -541,   -761,   2989,   1597,   1881,   7454,  -1351,    263,  -7874,   2196,   -461,   1758,  -6284,   5062,  -5435,  -2071,    923,  -2914,   5159,  -4999,   7462,  -3384,  -3319,   2674,   1050,   2914,   -946,  -9362,  -5684,    609,  -9164,  -1788,    374,  -8637,   4778,   1385,   2567,   2004,   -603,   5052,   3268,   1514,   3050,  -2053,  -3619,   -650,   1055,  -1923,   1980,  -3768,    612,  -3548,  -1091,  -6837,   -584,  -4273,  -7425,   6509,   8183,  -5134,   3506,   4321, -10513,  -4196, -11058,   1606,   4042,    850,   -404,   -755,   1791,   2584,   5236,    -68,     26,  -2444, -10217,  -3578,   2832,    940,  -4498,   -444,    243, -13098,    866,   4711,  -3286,  -4809,  -1673,  -1807,   3913,   2159,   1559,   4305,  -1289,   3928,  -1510,  -6632,    648,   5954,  -6660,   3116,   -628,  -6625,  -8822,  -2767,   7009,   2269,   5514,  12694,   2419,   1176,   3976,   7609,  -2024,  -4624,    359,   1046,  -4105,    450,   3730,  -5342,   -433,  -1723,   4223,  11478,  -9831,  -1868,   2774,    695,   3786,  -4217,  -4556,   2369,  -1652,  -3852,  -4097,    -74,   3120,   -469,  -1550,  -4451,  -1440,   4601,  -2444,  -3120,    368,   -630,   -253,   8148,  -3253,  -4225,  -2179,  -2927,   4786,   6637,   3643,  -2138,  -7762,   6790,   1934,  -4624,  -2270,   3200,   2922,    254,  -3130,   2950,   -805,  -4270, -13297,   8845,  -5262,  -5125,   3784,   1402,  -5115,   5764,  -1604,  -3474,  -8887,   5163,   5731,    187,   -624,  -1748,  -4090,    802,   -827,   3061,  -1837, -10962,    981,  -9381,   2167,   8767,  -1871,    628,   2018,    887,  -5193,   1732,  -7106,  -2029,  -1495,   6329,   -865,  -3031,   7734,  -9689,  -2771,   6244,   -999, -12199,   1972,    589,   -269,   2400,   -542,     92,    353,  -3054,   -950,   4198,  -4383,   4774,  -3312,    908,  -2149,  -1167,   2637,  -4033,  -2243,  -2543,    859,   4295,  -1644,  -2918,   -643,   5228,    407,    190,   3025,   2140,    472,  -4942,  -2148,     70,   2492,   6336,   4567,    212,    387,  -3310,    495,   2462,   1186,  -1081,   1855,   3811,  -2987,  -5650,  -6990,   4876,   5896,   -842,  -8288,   3347,    -55,  -9693,   1006,   5442,   -136,   3557,   3094,   3011,   -211,  -3780,  -8549,   9208,  -3718,   3768,  -6090,  -3328,   1163,  -6443,  -3769,   7041,   2498,  -7078,   -240,  -1437,  -2964,   3151,  -1788,  -4063,   1236,  -3634,    206, -16690,  -3539,   1174,  -9657,  -8723,   9551,    947, -10293,  11140,    454,   5759,  -1811,  -2072,  -5097,  -1772,   1769,   1394,    259,  -1128,  -2997,   1826,  -5877,   2016,
          4096,   -342,  -2528,   7118,   3860,    575,    186,   8175,   1755,   7188,  -4225,   7027,    872,   1984,    985,  -1340,   -126,  -3626,   4383,  -1433,   4559,  -1300,   3206,   -736,   1479,  -6989,   4183,   4987,  -6434,   1723,   2890,   8747,   3042,    779,  -1293,  -2100,   1734,  -6312,   4868,  -1570,  -2468,   4425,  -3685,   1471,   -640,    536,   7044,   4556,   3178,  -1996,   2984,   2292,   6956,   8757,   -269,    668,   7382,   -959,  -1179,    367,  -4180,  -7658,  -2453,    808,  -3064,   -325,    164,   9556,   6091,  -5969,   2835,  -4983,   3530,   -532,   3124,   2283,   7444,      6,    -59,   4082,   2942,  -8742,   1262,   3642,   4256,   5257,  -4945,   1793,   1856,   -634,   8241,   2662,  -5673,  -2175,  -4725,  -3515,   -808,   5423,    -42,  -9805,   6662,   2472, -11079, -11997,  -6850,   8581,  -3415,  -7641,  -3350,   5065,  -2039, -13183,  -8223,    920,   3259,   4549,   4928,    148,    383,   1881,  -3049,  -5135,  -6781,   1957,  -1434,   -437,   4855,   1447,   -414,  -5671,    905,   1768,   2116,   -402,  -1812,   1511,  -4604,   -273,  -4265,  -2247,   3479,   1717,   9301,  -1853,  -6084,    330,   -431,   3621,    -39,   2029,  -2062,   -498,   3574,  -1606,   1130,   3419,   2571,    504,   -761,   5456,  -2299,   3331,  -5206,   1521,    661,   2214,   4168,  -3739,   4910,   -936,   8696,  -5044,  -7634,  -6588,   1179,   7044,   1190,   5524,   4284,  -2397,  -3685,  -6214,  12559,  -3052,   2068,   2446,    910,    655, -11399,  -5718,   -873,  -1322,   3060,  -5139,   2332,  -3949,  -8320,  -1842,   6838,    721,   -731,  -4338,   -181,   7165,  -1634,   2270,   9262,   1974,    863,   -560,   3021,  -4570,  -5280,  -7137,  -3873,   6183,   7628,  -1150,   -775,  -2707,  -1256,  -4728,  -1206,  -2126,  -3542,   4348,   5228,   2114,  -1812,  -3655,  -3626,  -5887,   2521,   1895, -14930,   5568,  -8228,   2081,  -3891,  -7420,  -6025,   4458,  -2658,   2644,  -3775,  -2189,   -869,   -903,  -2387,  -2267,   2237,   2123,  -2917,  -3264,  -9114,   5869,  -5148,   2250,   3208,   5701,  -2882,   2077,   1278,  -6049,  -3145,   6263,  -1442,   6573,   3739,   1538,  -8158,   1915,  -3300,  -5584,   2252,   8694,   7005,   2303,  -8791,   3648,  -8071,   3355,  -3193,   3651,   1957,  -3447,    514,  -2401,  -4249,  -2165,    687,     93,    795,  -1511,  -6031,  -4333,   -359,   2964,  -7153,   3058,   1841,     78,    546,    350,   2268,  -1932,   2222,  -2535,   2501,   3123,  -3700,   2339,  -4356,  -4065,  -5853,   2331,    632,  -4700,  -1173,  -2089,   1814,  -5112,   1530,   8832,   1428,   3184,   -868,    420,  -5394,    -16,   1791,  -3187,   1930,  -5679,   -564,   4116,  -6430,  -1479,  -6396,    991,   2656,  -4882,   -564,   4322,   7184,  -3674,  -2377,  -8152,   4526,   -551,  -3402,  -9206,   5320,  -6458,   3153,  -3824,   4663,  -1823,  -3951,   3800,  16002,  -5271, -10345,  -7398,  11792,  10565,  -1768,  11147,   4637,  -4384,   -385,  -6234,  -3036,   9934,  -3893,  -7464,  -1565,   -656,    786,   1092,  -1019,   -499,  -8007,  -1245,   6844,  -1436,  -4876,   1733,  -3943,   1704,   4166,    970,   -987,   3263,  -1458,    922,    504,    115,   1634,   2278,  -3014,   -906,  -4532,   4873,   -300,   3542,     -1,  -5937,  -8661,   1491,   2847,  -1489,    296,  -2878,   2145,  -2958,   -418,  -1550,   4288,   1471,   4176,  -2291,   2342,  -5322,   2169,   1612,   3744,  -9489,   4487,   3042,    863,    883,  -1116,   7413,   7356,  -8196,   8111,   5175,   2547, -14010,  -1870,  -8207,   1659, -10115,   2086,    791,   2140,   -493,  -4524,    712,  -7735,  -7130,  -1126,  -5434,  -3400,    -56,   -807,  -4665,  -5893,   7526,  -4318,   4762,  -1293,  -1804,  -1377,  -8692,   4231,   1543,   7341,   1377,  -3616,   1560,   -220, -12559,   2222,  -8230,    541,   6135,  -6850,   7151,    442,   2679,    612,  -3319,    998,  -4626,  -4299,  -4661,  -3559,   8934,   2101,  -7104,   2836,  -3500,  -8293,  -3833,  -1407,  -3874,  -2003,   4969,   5130,  -4484,  -1577,   3676,   2213,  -3192,    440,   1418,    172,    -62,   3980,   1273};

    const static Filter<int16_t> l2_compress_filter(l2_compress_filter_element, -13, {1, 1, 16, 64}, {1, 1});
    const Filter<int16_t> *get_l2_compress_filter()
    {
    	return &l2_compress_filter;
    }

    const static __attribute__((aligned(16))) int16_t l2_compress_bias_element[] = {
            -4,     -7,      5,      6,     -3,      4,      1,      3,      7,     -1,      7,    -10,      0,      1,     -2,      1,    -13,      2,     16,    -19,     -1,     -1,      1,      1,     11,    -10,     -2,      7,     -2,     -5,      0,      6,     -1,      3,      4,     -6,      3,      5,     -5,    -17,      9,     -7,     -9,     11,      4,     -5,     -6,     -4,     22,      1,     -4,     -8,     -1,      1,      2,      7,      2,      3,      1,     15,     -9,     -3,     -4,      3};

    const static Bias<int16_t> l2_compress_bias(l2_compress_bias_element, -3, {64,});
    const Bias<int16_t> *get_l2_compress_bias()
    {
    	return &l2_compress_bias;
    }

    const static __attribute__((aligned(16))) int16_t l3_a_depth_filter_element[] = {
          1572,   7011,   4610,   6397,  -1201,  -1275,   2782,    721,   1859,   1697,  -8181,   1640,  -4121,   8529,  -3358,   -307,   3611,   -554,   -445,   3658,   3964,    739,  -3983,   1920,   4627,    441,  -2509,   3885,    421,  -4881,  -6021,  -3060,   -481,  -1396,   1973,   2206,  -2998,  -4304,   3957,    965,   2100,   -840,   -233,  -1234,   1190,    215,   1323,   2617,   5150,  -8579,    537,   3237,   3205,  -1846,  -1168,   7586,   6394,    424,   2799,  -1139,  -5701,   2684,   4140,  -4171,  -2244,   1779,   -320,  -5432,    607,    211,   1401,   -748,    334,   1017,  -2743,  -2332,   9852,   2789,   7861,   1938,  -1689,    841,   2385,  -1915,  -2166,   3699,   2755,   1404,   9647,  -1421,    873,  -1594,   1566,  -7420,   4946,   5792,   -287,  -1087,  -3256,  -2159,    767,    371,   2778,    -93,  -1069,    946,  -1159,  -1318,   -747,   3144,  -1896,    340,    490,   -476,  -2243,  -3802,     54,  -2504,  -1987,   2567,   2080,   4066,   7405,  -1119,   -194,  -1067,    575,   -233,  -4383,   5635,  -2519, -12593,   -435,  -3202,   3760,    591,  -5597,   4573,   -411,   3947,   1097,   4369,  -2443,   1275,  -4722,   -931,   4123,   3483,  -4080,  -4750,  -3546,  -2535,  -8112,   5209,   2102,   1309,   6159,   1165,  -5160,  -2430,  -4185,  -5088,  -3962,     58,  -3791,  -4375,    796,   4175,   -483,   1984,  -1906, -16956,   1790,   -484,   2269,    844, -11352,  -5143,  -2049,  -1679,  -1136,   2711,   -574,   3528,  -7538,   -103,   2867,   -739,   3854,  -1613,  -4375,   -377,  -7236,   1723,  -5446, -26215,   1164,   1658,   5480,  -2739,   -815,  -2379,   3859,   1247,  -1850,   1109,  -4872,   1214,  -1934,   -968,   1546,   2221,   -878,  -3011,    745,  -5618,    690,    670,    854,   6395,   -784,  -4587,    499,  -1267,  -1463,  -1481,    428,  -3952,   1004,   5404,   6912,    404,   1769,   5290,     94,   2699,  -3543,  -5672,    176,   1087,   -911,   -763,   1316,   3029,   1464,   1709,   -767,   2357,   3044,   2077,    512,   1198,  -1741,  -1981,  -1240,   2452,    -17,   2719,   1387,   2371,   1828,  -5510,  -1838,   3149,    833,    947,   1016,    754,    956,    818,   -434,   4866,   2625,   -147,    932,   3064,   5035,  -2572,  10997,   1188,  -8010, -10305,    537,  -7076,    813,   2128,   2306,   2728,  -8095,  -2362,   1420,  -1666,    174,    739,  -2035,   -678,   -338,  -3838,   1606,   3874,   3743,   1921,    719, -11647,  -2132,   3433,  -2001,  -2426,   2888,   1263,   1408,  -1463,   -830,    480,   2416,  -1380,   5791,   1075,  -1190,   1415,   -770,   4453,   2005,   -711,    169,  -1455,   -754,  -7319,  -5763,     20,  -2276,   7880,  -3133,     91,   -906,  -1429,  -5831,    249,   1124, -17623,  -2558,  10754,   6974,   3330,   1811,   1694,   -354,  -9783,  -3146,  -1571,  -2043,  -4071,   5103,  -2176,  -5236,  -6764,   4015,   3492,  -2254,   2537,   1764,   5162,  -2721,   -827,   -814,   6127,  -4537,   -181,   3839,   8364,   1926,  -5091,  -3982,   8494,   2395,    178,   1469,   5324,   -823,  -1645,    752,  -1311,    483,   4994,  -1783,   -518,   3986,  -1712,   -417,   -728,   1345,    597,  -4239,  -2184,   4146,   1113,  -2360,   4774,  -2404,  -1238,  -1608,   2867,    871,    705,   2877,  -3885,    269,   1475,   4646,   3384,  -5137,   2840,   1435,  -1690,   -499,    117,  -4743,  -3960,  -4504,   3470,  11396,   2312,  -2152,   1520,   1569,   -792,   1950,    762,   1869,    983,  -6336,  -8045,  -1264,   5277,   -319,  -7241,  -3973,   5710,  -4657,  -2956,  -1375,   -728,  -1177,   3414,      1,   1249,   2000,   1523,  -3228,   -798,  -3883,  -3845,   -331,    157,   7798,   -171,  -2194,  -3118,   -849,  -5837,  -1961,   -476,   4340,  -4448,   -323,   -247,  -1374,    786,   4380,   3184,  -1126,   6234,   2245,   2116,   5162,   3922,  -2674,  -2526,  -4213,  -2786,  -1483,  -5222,    952,   2309,   6142,   2000,   3755,   4394,   2175,   -587,   6476, -11127,  -1657,  -1444,  -4853,   3986,  17254,    859,   3089,   1936,  -2823,   3199,    997,  -3449,  -2939,   4109,   5115,   2319,   2697,   1928,   4497,   1382,
          1872,    956,   1028,    886,  -2193,  -2065,  -1907,   3433,   4316,   6481,  -5489,   6804,  -2407,  -5117,  -6309,  -3372,   2456,  -2878,   3690,  -2300,  -1890,   4753,   1052,  -2578,  -1708,    143,   2248,  -1261,  -1785,  -1749,    785,  -5059,   -948,   2117,    561,   9372,   3121,  -2246,  -2643,   5589,   5029,   -372,    864,   -814,  -4318,   2540,   -331,   5663,   -494,  -1296,  -1673,  -4468,    993,  -3002,   2531,    615,  -9510,   2069,   2654,   2683,    624,    449,   1256,  -4868};

    const static Filter<int16_t> l3_a_depth_filter(l3_a_depth_filter_element, -13, {3, 3, 64, 1}, {1, 1});
    const Filter<int16_t> *get_l3_a_depth_filter()
    {
    	return &l3_a_depth_filter;
    }

    const static Activation<int16_t> l3_a_depth_activation(ReLU);
    const Activation<int16_t> *get_l3_a_depth_activation()
    {
    	return &l3_a_depth_activation;
    }

    const static __attribute__((aligned(16))) int16_t l3_a_compress_filter_element[] = {
         -5889,   3109,  -4564,   2633,   5087,   2365,   -666,   1209, -10224,   6318,  -4897,   3061,  -6276,  -7961,  -5009,   1707,  12326,  -6163,  -3121,   -224,    815,  -5795,   1915,   6360,    250,   9006,   2203,   7442,   5988,  -3555,   2524,   3800,  -8403,   1645,  -1115,   3381,   5625,  -1014,   6283,   -389,  -1830,   7973,  -1615, -11340,   5482,   8131,  -4352,   2710,  -3325,  -1042,  -1063,   -179,  -5924,   1757,  -1404, -14853,   6667,  -6978,  -3100,    656,   -338,   4057,  -4074,  -5661,  -1636,  17641,  -2022,   6892,  -1159,   2912,  -3960,    801,   5292,   7258,  -3862,   -892,   2641,   -667,   4335,   1156, -11896,   7993,   2903, -10279,   1441,   5806,   3011,    407,  -7155,   2187,   5351, -14192,   8061,   7136,   7817,  -1984,   2736,    736,  -2200,   -520,  -1064,  -3028,   2702,   5411,   4588,   3138,    216,   5680,  -3203,  -4108,  -1872,   6824,  -5942,   9479,   7810,   6017,  -4724,   3662,  -1815,  -4623,  -2670,  -8524,   1250,   6990,    579,  -3581,   2583,   2910,  12709,    880,   3053, -11904,   3795,  -5743,   3448,    631,  -2003,  -4569,  -3777,   6895,    890,  -7476,   4955,   2261,   1668,   1488,   -610,  -1465,   1047,   4384,   -582,   -230,  -1532,   1274,  -6884,  -6542,  -8051,   1597,  -6072,  -6575,  -5891,    385,  -4779,   9541,   5065,   4465,    285,   3157,  -6859,  -3471,  -1743,   1363,   1357,   -996,     33,   6800,  -1169,  -1368,  -1172,  -1390,   2108,    938,   -677,    -98,  -1508,     53,   5677,  -1262,   3304,  -6430,  -4764,   2510,   3631,    421,   4333,   -595,   2334,   -195,   1155,  -3437,  -4656,   1008,  12728,  -5915,  -8012,  -9856,   7114,   1957,  -1306,    391,  -1284,   -585,   1689,   -382,   2061,   -626,   3109,  -5359,  -8141,  -3674,  -2117,  -1839,   1370,   5663,   3722,   2522,  -2391,  -2840,   3709,   6601,  -5412,   -385,  -1459,  -7650,  -2447,   4987,   -659,   5367,    736,   -484,  -2648,   1125,   8857,  -2979,  -8619,  -5199,  -5982,   1932,   1399,    636,  -1910,  -1947,   5573,   -917,  -3474,    990,   6686,  -1386,   1725,   1744,   4777,  -5546,  -1987,  -2876,   2058,   1917,   7787,    791,   2868,    451,  -4423,  -5404,  -2109,   3607,  -8110,  -5636,   2766,  -5874,   3565,  -9754,  15122,  -5012,  -7672,  -4501,   4244,   1226,  -5201,  -7668,   4887,   3964,   4624,  -1693,   2693,  -3986,  -4782,   -892,  -2389,  -3205,   3049,   9184,   6975,    349,   -683,  -3286,  -1442,  -4949,  -2996,    374,   5665,   3935,  -5305,  -4306,   6253,   6822,  13550,  -5304, -14665,   3771,  -1031,  10266,  -1426,   1796,   8051,  -6959,  -2522,   2175,  -2650,   8440,  -5936,  -1758,   4446,   4278, -10967,  -3419,   -911,   2300,  -2988,   8902,   1041,  -2256,  -7420,   4913,  -2833,   2119,  -2676,   3141,   2556,  -6315,  -4457,   8077,   2958,  -1001,   1122,  -1477,   4571,  -6774,  -1544,   3198,  -4571,   5938,    473,   6445,  -1167,  -8439,  -7291,   1052,  -5055,   -127,   -901,  -1125, -10019,  11343,   6020,   4055,  -2375,  -4682,    893,    295,  -1370,   1698,  -4028,   -170,   8840,   6500,   1002,   1735,   9799,  -2720,  -7029,  -9308,   2617,  -1790,  -1311,    575,  -3887,  -4572,  -5371,   1472,  -5254,  -3688,    286,   7672,  -2485,    898,  -6723,   3049,   6936,   5889,   4480, -17884,   1625,   1515,  -5887,  -2404,   1711,   3310,   2833,  -5301,  -5967,   -950,    716,  -2839, -10975,  -1777,  10611,   5011,   3394,   2654,    959,  -4332,  -6578,   1052,   6271,  -4307,  -4625,  -5834,  -6288,  -5005,   3869,  -3734,  -1303,  -3024, -10914,   -163,   -422,  -8559,  -4298,   1225,   1780,  -1418,   4790,  -3521,   4115,    107,  -6756,  -2206,  -9203,   1727,  -1791,  -2207,     18,   -431,   3313,  -6335,  -4954,  -9612,  -1739,  -7911,   1008,  -2601,  -1797,   -426,   2210,  -9444, -11719,  -2618,   2844,   -432,   5172,     19,   1489,   7226,    432,    -77,   2365,    996,   4190,   -672,  -6099,   1667,   3033,  10389,  -8389,   1200,   -724,   1051,  -2068,   2592,  -3438,   5377,   2619,   1331,  -3996,  -3450,   1374,  -8200,    463,  -3102,  -4230, -11791,  -6865,   1815,
          4683,  -5161,  -4126,  -1426,    243,  -2817,  -3613,    704,  11851,  -5565,   6639,  -2897,    578,   2079,  -1056,  -3433,  -4143,   2025,  -5559,   9064,   -453,   2319,   3897,   -515,   1543,    944,    -36,  -4253,  -5568,   1892,   7431,   -669,   -247,  -2255,   1189,   4823,    822,   7348,    509,  -4616,  -3253,  13687,   6443,    501,  -3526,  -8242,   -603,   1901,  -3218,   6116,   7916,  -4622,    719,   3674,   7542, -10972,  -9363,   4533,   3767,  -7181,   5800,   1143,   1999,  -3509,  -7233,  -7414,  -5868,   3174,  -2413,  -4434,  -4390,   2328,    462,  -4736,  -2069,  -4223,   2485,  -1924,   4497,   -835,   3860,  -8985,   4840,   7157,  -7205,   6524,    189,   5970,   -974,   7918,  -3480,   3265,   4760,    233,   3747,  -2791,    264,   -403,  -5465,  -6218,  -1616,  -5867,   1104,  -6784,  -1409,   -533,   1699,   9508,   1198,   2124,     84,   4699,  -6733,  -4667,   6725,  -1087,   4533,   6363,  -4933,   4868,  -4060,   7558,   1667,    382,   1864,  -3814,   4869,   1404, -13761,  -3288, -10352,   5205,  13768,  -4932,  -6547,     60,  -4079,    986,  10393,  -2376,  -2241,    367,   7257,   9561,    379,  10601,   3353,  -5359,   5784,  -6465,   7508,  -8700,  -2995,  -4968,  -1166, -13399,   8153, -12482,    308,   6472,  -3057,  -4765,  -5671,   1461,  -1738,    465, -10180,  -4346,  -1799,  -3584,   9334,  -3563,  -1122,   7032,    686,   3694,  -3821,  -6040,   8834,   -453,  -3985,   1243,   4976,  -4313,    110,   5145,  -5369,   1660,   2934,  -1814,  -5583,   2912,   -876,  -1291,  -9570,   1084,   3045,  -3644,  -1143,   4152,   2985,   4325,   3338,   4921,  -2111,   2485,   7774,   3109,   1486,  -2228,   -983,   -679,    410,  -3246,   -861,   2362,  -4766,  -7998,   1264,   3930,   2324,  -6696,   5873,  -1166,   5054,  -4666,  -2938,  -2837,  -2313,  -4581,  -2379,   1120,   -678,  -1572,   3104,   3694,   1662,   5476,  -8599,  10023,    846,   5018,  -5838,  -7712,   9731,   1946,  -5132,   4694,  -2409,  -3145,  12144,  -4998,  -4159,   4898,   3738,  -6614,   -204,   1892,  -7773,  12977,   3743,   1845,    535,    778,  -6467,   2677,  -4203,   2488,   3438,  -4242,   -961,  -4473,   1696,   2466,  -7190,  -4878,   -933,   5315,  -7914,  -9694,   6571,  -6233, -19832,   7794,   3436,  22768,  -2823,  -9320,  -6274,  13248,   2813, -12166,  -3388,   -611,   2712,  -1819,   1140,   -776,  -7254,  -6457,  -8403,   6780,  -2115,   7801,  -3724,  -6326,  -2650,  -2342,   -474,  -1010,  -2863,   5577, -13269,  -4498,   4744,   4864,  10987,   3067,   3358,   9723,    344,  -3152,   6543,  -7496,  -4130,   -120,  -3727,   6619,  -1426,   7175,   4775,  -1675,   6418, -10036,  -4346,   -962,   1103,  -8135,   4468,    780,   1642,  -6139,   8090,  -2981,  -4280,   2889,  -5523,  -5585,   3562,  -4368,  -1388,  -1515, -10589,    463,   2219,  -2144,    184,  -3344,   6409,   1270,  -4451,   2899,  13677,  -8303,  -3608,   -526,  -2303,   3138,    242,   7494,  -2332,  -5033,    285,   2131,   1083,  -7722,   4352,  -8944,    934,   8619,   3713,  -9867,  -2506,   8242,    756,  -7917,   6970,  -1400,  -3813,  -6910,   -220,   6835,  -2223,  -7434,  -2484,  -1990,  -3194,  -6150,    561,  -3778,  -7925,   -191, -10090,    641,   3487,  -1891,  -2186,  -4695,   5684,    335,    911,  13736,  -3974,   -724,  -2077,   2026,   2346,   5312,  -3415,  -3968,  -4333,  -1666,  -4568,   -972,   -163,   1927,  -2954,   1460,   8282,  -7932,  -4128,  -2087,   3822,  -1549,  10686,   6228,   1665,   3366,  11903,   2966,   1500,   5580,   3941,  -1207,  -4936,   4834,    322,  -5017,  -3781,  -1555,   -822,    415,   5192,   2360,    858,  -4887,  -3213,    415,    995,  -5372,  -6114,  -5069,   5777,   -475,  -1667,  -3229,   1752,  -3387,  -6204,   2485,   1263,    367,  -2217,   1415,   9461,  -2412,  -7359,   7752,   2585,  -4584,   2777,  -9373,  -1898,   -153,    509, -17738,   -950,  -6403,   1490,  -6007,  -7868,    888,   3319,  -4493,   4759,  -2764,   5113,   2219,  -8920,  -1892,    781,  -6924,  -3635,  -4181,   5100,   8747,  -1599,  -2472,     56, -10871,  17331,  -2104,
         -6073,   4999,   3412,   3534,   -975,   -957,   6957,    176,  11733,   9107,  -5837,    201,   -483,   9924,    -33,   1011,   5637,  -7817,  -5575,   4770, -10311,  -5773,   6033,    268,   -276,  -4861,   4626,  -5936,   3503,   2871,   9548, -10532,   5235,   1893,  -4356,  -3621, -11802,   3787,  -3793,  -1896,  -1133,  -7295,   -197,  -2012,    775,  -2868,   3351,   2382,   2361,   1593,  -8063,   3141, -12795,   -325,   6623,   -219,   4134,   -808,    688,  -1126,  -8666,   1972,   1076,  -2304,  -1720,  -3956,  -3352,  -6069,  -7039,   4388,   -586,  -5663,   -945,   3774,   4297,  -4039,   -299,   1324,   6968,  -6872,   -473,  -6139,  -6609,   1242,  -4266,  -1972,  -2970,  -4721,   4078,   5331,  -4212,  -8222,  -8571,   3660, -13243,  -9153,   6453,   2014,  -2198,   -961,   2423,   5330,  -8305,   2206,  -2523,    599,   3655,  12912,    341,   1170,   -922,   5454,  -5806,  11860,   7920,  -1396,   5106,  -1292,  -5204,  -1319,   2201,   5893,  -4809,   3602,  -1374,   -869,   3642,   -254, -11535, -21596,   4860,   1476,  -4240,   1706,  -3563,   8458,  -5909,  -1025,  -5319,    915,  -1327,  10441,  -2310,  -4908,  -4151,    568,   7238,  -3477,    -45,    396,   -898,   3501,  -2016,   3746,   2308,   6465,  19945,  -4111,  -6081,  -9092,   5461,   9413,   4586,  -2605,   4590,  -5378,   5508, -10359,  -3449,   9527,    -49,   -319,   3073,  -3518,   5270,  -8100,   -713, -10325,   1786,   3642,  -2178,  -2848,   4144, -11275,   2243,   4335,  -1789,   2504,  10265,  -2866,  -6005,    586,   3659,    799,  -2733,   4817,   3154,   3212,   7112,   -264,   4491,  12526,  -5718,   5070,  -6420,   2018,    394,  -6713,   -107,    985,   2049,  -2223,   1280,  -2888,  -1385,  -4261,   5938,   2367,  -7507,  10586,  12725,   -729,  -3392,    997,  -2172,   -134,   2483,  -5019,  -6949,  -1412,    241,   6702,  12786,   1958,  -5719,   2913,   4199,  -3919,   2224,   1553,  -2423,  10544,   2379,   4356, -11030,  -4985,  -6414,   7071,  -3715,   3153,    591,   1971,  -3861,    275,  -5052,  -6113,  12556,  -9152,  -2243,   2811,  -3655,   4566,   3984,  -6607,   -576,   5599,  -8171,  -3315,  -1553,  -5718,   3962,      8,  -8215,   3329,  -1650,   2664,   -334,   1204,  -5465,   2404,   4849,   1835,  11126,   8022, -16070,   5016,   9549,  -1979,    442,  -6390,   1570,  -4690,   3538,    -88,  -2821,   3088,  -4422,   1408,  -4903,   7390,  -3049,   1331, -12272, -10543,    214,   -487,  -1734,   7924,  -2120,    772,   -110,   3309,   1678,   5927,    454,   3388,   4768, -11772,   6539,  -3678,   -443,  -3741,  -3568,   2074,   8181,   -245,   -310,   2400,  -1746,   -306,  -8084,    514,   5167,    271,   5437,  -6783,  -3373,  -3603,   4808, -15542,   5411,  -5318,   -914,   5153,  -2709,  -4074,   3304,  -1928,   7086,   2594,    470,   3955,  -6735,   4878,   7733,  -1087,   7284,   -690,  -1209,  -2363,  -1934,    -48,   -924,  -1778,  11845,   5840,   1489,    970,  -9615,   -415,   1415,  -2602,   4132,   4842,  10722,  -3773,   -743,   7275,   5852,  11296,  -4525,  -4679,   -111,   3989,   -262,  -1248,   1063,   9311,  -8979,   7410,   1180,   -853,   5772,   3517,   2547,  -2126,   6317,  -2996,    932,   5063,   -146,   2676,   3776,  -2122,  -1752,   7767,  -3131,  -6234,   3521,   1054,  -7453,  -2560, -17455,  -1271,   6332,   2070,  -7010,  -1895,  -1367,  -4543,   2537,   5556,   3862,   1873,   -473,   1057,  -2122,  -1032,   7853,  -4535,  -5151,   3555,  -6319,   7286, -13863,  -5758,   3645,  -2074,   6352, -10710,   8398,   6304,   2950,   3906,  -2633,  -2710,   4488,   -777,  -7470,   2503,   -369,  -3704,   3230, -12152,  -7298, -10961,   1060,   9595,  -5336,   2524,  -5072,   2009,  11256,   2528,  -6227,  -1447,   5336,  -4093,  -5813,  -1418,    911,   5214,   8438,   6329,   2708,  -6319,  -5856,  -6590,  -8012,   -896,  -1992,   -238,    -98,   -196,   1069,  -5076,    173,    192,  -3452,   1329,   1274,  -1336,   9605,  -2018,  -4971,  -2583,    717,   2313,   1536,  -4457,   9746,   -139,   1161,   4323,  -8963,  -5012,  -9340,   7644,  -4607,   8243,  -9463,  -3180,
          6226,   3933,  -1695,  -1646,   5785,  -3598,   3335,  -5266,   7814,   3994, -12969,   8333,  11327,  -9357,  -4795,    813,  -1985,  -4632,   4609,   2157,  -3019,  -1127,   2734,  -5743,   9179,  -1938,  -5127,  -6380,  -9986,   3485,    410,  -2137,   1405,   2190,    911,  -1008,  -1228,  -9658,   -661, -11036,   3354,  -5234,    276,    346,   9694,   2070,    989,   2391,   5534,   -950,  -2429,   3189,    866,   3070,   1984,   4352,  -9838, -11222,  -6860,  -5763,   -445,   7128,   2601,   2247,  -2180, -12251,    574, -12724,   2697,   1112,   2768,  11945,   -777,  -2734,   4715,   4817,  -4215,  -3302,   5008,   1216,  -8646,  -7010,   3705,   1446,   1579,  -1912,  -3829,  -4203,  -3925,  13462,  -5500,   2154,   6744,  -2189,   3307,  -4642,   1139,  -8351,   1031,   1587,   4173,   1800,  -8442,  -1212,  -4863,   -461,  10573,  -1193,  -5209,   3547,   3931,   6089,   7619,  -1621,  -6437,  -8161,  -2962,   6002,  11045,  -1524,   1723, -18035,  -1961,   4966,  -1767,  -3194,   4545,  -2075,   1249,  -6241,   7331, -13285,   9766,  -1940,   5469,     23,    566,  -5142,    511,   5486,  -6580,  -6643,  -5437,   2940,   6584,   7098,   -472,  13282,    857,   3025,   7026,   4630,    -95,   1824,   3187,   -193,   9583,   2881,   1090,   7630,   1565,   2669,   2348,   4421,  -4659,   2486,   5653,   2310,   9503,  -3194,   -622,    305,   2329,    792,   1360,    -19,    222,   2022,  -1842,   4353,   2639,     40,   9859,  -3917,  11948,   7929,   5632,  -4239,    704,  -4184,  -1822,    -78,   2197,  -5138,   -940,  -2094,  -5610,  -1424,   2661,    -56,  -4117,   3743,  14980,  -2581,   2600,   6757,  -2512,  -2434,  -2047,   -678,     39,  -1919,  -1163,   -887,  -2838,  -1026,   4808,   4190,   7789,    471,   3736,   3232,   8903,   2360,   2429,  -4359,  -4132,  -1507,   5009,    394,   4400,  -2911,   -322,   6095,   6080,  -4329,    823,  -4892,  -4833,   2825,   3724,  12964,  -3610,  -1469,   9373,    212,   5068,   2036,  -1880,  -3581,   5339,   -453,   1159,   2103,  -1137,   4298,   2536,  -5168,   6509, -12766,   2769,  -1097,   8926,   7392,   8719,  -1146,   1063,   3409,  -2885,  -1485,   2879,  -5678,   5165,   1537,  -4747,    815,    729,  -1373,    709,  -1482,   4275,   7145, -18864,    915,  11061,  -3996,  -8268,  12438,   2207,  -4707,  -3764,  -4527,  -3714,  -4327,   3412,  -9235,  -9307,   -104,  -2172,  -5632,  -2411,  -3305,   -553,   5869,  -5083,  -3601,   5855,   2154,   1303,  -4946,    -23,   6114,  -6997,   5252,   5323, -12356,   -717,   2612,  12139,   1820,   1724,  -3937,  -5140,   -212,  -4085,   2660,   -877,  -8912,  -3627,  -1871,  13879,  -6056,  -7272,    866,  10752,   3861,  -3864, -10746,   1861,  -8844,  -4690,  -3586,    748,  -7055,   6213,   4724,      3,    524,   -189,   2974,   -315,  -5094,   1325,   6342,     36,  -3688,   4872,   4778,   4420,   6500,  -6585,   6254,   3027,  -2623,   7746,   2968,   2440,  -4648,   8124,   -786,   2414,   -269,   2389,   -758,   6657,  -5490,  -1895,    441,   5583,  -7866,   -384,  -1523,  -8782,  -1286,  -1782,   3551,  16667,  -5292,   4942,  -1579,  -4225,   -594,   9361,    617,   -516,   3946,  -1822,    867,  -4489,  -2102,  -2102,   2258,   5869,  -8419,   7177,    918,  -1434,   6123,  -9448,    -65,   6870,   4586,  -3634,  -2748,  18822,  -5944,  -2582,   5612,  -2356,  -2112,   4937,   1848,  -2799,  -3031,  -4960,  -4740,  -5749,   1613,  -4201,   -418,    967,    384,   6718,   2172,  -1544,  -1794,  -4345,   2782,  -2171, -11114,   8011,  -7134,  -1772,  -1065,  -1329,   7507,  -1743,   6781,  -1782,  -3781,   -478,  -3115,  -1353,   2942,   3738,    402,  -7031,   -205,  -3423,   6907,   2564,   3388,   -327,    680,   1032,   6622,   2983,   -727,   4658,   1847,  -3348,  -9630,    152,  -4768,   2035,  -2509,   9049,   9114,  -3691,   1195,   2800,  -3640,    433,  -2966,   1998,   2165,  -4393,    -92,  -3007,  10546,   1153,  -6155,   5418,   -158,   3172,   9493,   7098,  -1003,  -5901,   -356,  -2791,  -4377,  -4402,   2490,  -8277,  -4255,   5089,  -2269,   2070,   -178,  -7333, -11188,
         -5302,   5394,  11398,   3924,  -7797,   1885,  -7738,  -5980,    364,  -1295,   1292,    974,   7049,   8246,   1669,  -9685,  -8786,   3106,   -267,  -2547,  -1350,   6647,   1112,   -480,   3548,   2298,  -6806,  -1839,   8202,   1010,   6918,  -1330,   -889,  -5352,    616,     57,   -420,   3844,  -7846,    985,  -3271,     35,  -6026,   3217,   1682,    581,   4746,   6481,   3463,   7325,  10699,  -4095,  -4526,    468,  -1072,   4039,  -3093,  -3473,  14806,   -101,  -3397,  -2502,  -1858,   -578,   -561,   -882,    257,   3609,   2843,   1888,   5816,   6380,    867,  -4840,   3109,   -772,  -1434,  -6098,   3229,   4893,  -4086,  -1570, -11426,  -2556,   -300,   2041,  -5636,   5296,   -745,   1416, -10179,   8871,   2865, -11907,   2870,   5289,   3621,  -3271,  -1175,   -712,  -6350,   4463,   3334,  -2711, -12592,  -3498,  -1505,  -1673,   2970,   2990,    961,  -2461,  -3671,  -3327,   2921,  -2624,   9225,  -1551,  -3767,  -3352,  -8698,   7177,    438,   1004,   2681,  -2135,  -1731,  -6098, -11502,    789, -13352,    174,   5127,   -739,  -5180,   2791,   1872,   3058,   4676,   4113,  -2115,  -2190,    771,   4321,   -951,  -5276,  -2846,  -2140,   4715,    410,   2827,  -9278,   -663,  -8731,   7275,  10265,   4836,     95,   5336,   5865,  -4454,   8331,   5535,   1249,   7044,   2489,    505,  -2424,  -3371,  -5820,   1058,   3076,    331,  -6537,   1300,    837,  -5154,  -2311,    147,   1775,  -4168,   2890,  -6440,  -1446,   4406,   3628,  -3034,   -573,   2025,   5066,  -1975,   -346,   -418,   5334,    -55,   -797,  -4723,   1876,  -2456,   2949,    105,  -7467,   -477, -10384,  -3111,   -928,  -7062,   4362,  -1248,  -1509,   -298,  -3717,   -422,   1718,  -1155,     -3, -12066,   2533,   5405,   4147,  -3547,    363,    472,  -5049,   -489,   2899,    -22,    -99,   -224,   1986,    805,  -1770,   7050,  -6858,    876,   4446,  -4591,   -470,   3638,    834,  -1614,   2776,   1677,  -2187,   2135,    453,   3741,  -1588,  -5508,    665,   3176,   1945,   2849,  -3741,   4787,   2656,  -4902,   3554,   7158,    376,  -2095,  -5188,  -2314,   2198,   2015,    -52,  -6406,  -1649,  -1495,   1491,  -2861,  -3405,    813,     54,  -6144,  -5608,   1071,   3016,   1876,   4385,   -832,   6319,  13897,   5325,  -4710,   3641,   -986, -15384,   4293,   9363,  -3981,   2242,   2065,   4330,  -4384,   5714,   6106,   2622,  -1656,   -291,  -1532,   1104,  -1788,   2340,    566,   5649,  -3568,  -4706,   1907,   3526,  -7421,    -46,   2136,  -4424,   4043,   5377,  -6861,   2724,   1189,    753,   1310,  -3548,   4101,  -1397,  -1125,   3674,  -1659,   9237,   8455,   6046, -11229,  -8492,   1421,  -2126,  -7432,  -9137,   4778,  -3065,   2967,  -1094,  -2559,   7218,   1627,   3327,   3055,  -3082,    510,   2603,   2069,   -237,   5720,   8491,  -6499,  -9879,   6174,  10930,   -449,   6358,   2237,   5110,   5432,  -1443,  -7936,  -3794,   -954,  -5317,  -8561,   1694,   1618,  -1235,   4097,   -812,   2595,   4495,  -4654,   2066,   6581,    753,   -960,  -4024,    745,   1256,   -554,  -4975,   2142,  -4764,   3044,  -4760,  -2364,  -5428,   -533,   -446,   6698,  -4506,  -7489,   -199,   6537,   3881,    708, -10389,  -9463,  -7210,   1125,  -5067,   5777,    457,   6004,   4939, -10684,   8824,  -4971, -10213,   1669,  -6769,   2383,  10607,   -747,   3251,   2796,  -1333,   4915,   2366,   3980,   2177,  -7903,   4081,   5156,   1364,  -3228,    706,    438,   -521,  -3234,  -4862,  19091,  -6145,   -857,    764,  -2921,   4156,  -8349,   -804,   1301,   4154,    780,   6966,   4386,   2952,  -7236,   3632,  -3397,  -1394,  -2054,  -6708,  -2022,   -412,   3689,   5101,   8360,  -1128,   -556,   -718,   2356,   3761,   2299,  12969,   4821,   3460,   4458,   1524,  -5102,  -4431,  -4819, -11251,  -8951,   6381,   4067,  -1507,  -4360,  -1046,    931,  -1043,    575,    -74,   1008,  -4420,    356,    455,  -6684,  -1667,   1263,   6038,   2957,   3562,    961,  -2719,   4931,  -5231,  -1577,   1079,   -384,   5938,   4911,   2145,  10021,   8835,   4077,   -805,   2740,  -2886,  -2222,  -4522,
            22,   6273,  -4241,   3505,  -7993,   1334,  -6860,  -2508,   -272,  13474,  -1005,   -697,   6549,  -4564,  -6373,   7449,    675,   -508,   2783,   7481,   3833,  -3847,    112,  -1753,  -7038,   1738,   8549,   4040,  -8184,   1288,   4048,   6079,   8554,   1509,  -1918,   -210,  -3951,   1764,  -5951,  -5696,  -1518,    605,   3185,  -9838,  -8875,   2990,   1445,  -6980,  -1014,    261,    901,   -957,   3745,   8357,    351,   6499,   -119,   -233,  -3740,   3276,  -3442,  -7015,  -4167,  -5351,  -5305,  -3795,    207,  -6649,  -4523,   -327,  -1079,  -2461,   -391,    546, -14336,  -2040,   4692,   3895,   2532,   3617,  -3067,   3183,   3761,  -2622,  10489,   1857,   4354,  11258,  -6977,    -93,   8542,   1573,   6026,  -3152,    293,    302,  -4020,   4424,  -3184,  -7621, -12047,    884,   5953,   1509,   2299,  -1584,  -8684,   -975,   4120,   3552, -10170, -10268,   3448,    772,  -1571,  -3646,  -4986,  -5032,   -439,   2725,   2341,   2228,    809,   1767,  -1547,    985,    183,    129,  -3192,  -8730,  -5726,  -6994,  -5692,  -1896,  -1918,  -4215,   2469,   4306,  -6240,   6986,   9427,  -4504,  -4880,   6339,    202,   -442,   7024,  -3479,   6621,   4707,  -1030,  -1897, -10119,  -9783,   5581,   2922,  16380,  -4900,   3187,   4714,    121,   -974,  -5985,  -1563,   1169,    658,  -3350,  -1022,  -3705,  -3015,   3822,    502,   3365,    617,  -2004,  -5483,  -3559,    181,   -901,  -8150,     63,    388,    492,   8643,   5013,    201,   9064,   4023,  -8318,  -7309,   -160,   3780,   2281,   -354,  -2427,   7302,  -4158,  -7103,    346, -10113,  -4173,   5094,   7798,   5728,   2189,  -7458,   -192,   1442,   1160,   1648,  -1630,  -1464,   -794,    476,   2254,  -1284,  -5419,  -1118,   -541,  -4483,   3807,  -5143, -15232,   8146,   -349,  -1226,   -747,  -1340,  -4803,   2809,  -3123,   4976,  -4722,    600,   2772,  -1462,  -1090,  -2182,  -7661,  -4431,   -324,   2555,  -6645,  -4829,  -5214,   1760,  -7618,  -8002,   -157,  -2272,  -5337,  -8865,  -2929,   1705,    181,   -466,  -2901,  -1109,    556,   7681,   2532,  -4649,  -9663,  -2646,  -2704,    555,   5522,   -824,  -3669,  -3765,  -1326,   2563,   5204,   -740,     28,  -1561,   5619,   -606,     73,   -764,  -4355,   6540,  -7013,   3811,  -6306,    907,   2844,     36,  -1166,  10811,  -2841,  -1014,  -6424,  -1185,   1042,   5336,  -3198,  -3068,   5223,   1918,  -6664,  -6258,   5915,   -103,   4905,   3292,    876,   1628,   3672,   3328,  -1275,  -5003,  -3759,  -6668,    672,   1528, -11581,  -3811,  -3276,   9888,   5776,  -2743,  -3563,   7373, -13743,   7797,   -534,   3727,  -4344,   4063,   2248,  -3714,    -14,   3635,   7028,  -1702,  -5661,   -639,   6254,    439,  -4912,  -1580,  -5462,    564,  -1667,   1723,   3496,   4434,  -4825,   4785,  -4347,  -1982,  -9534,   5455,  -7206,  -1948,   2099,   2481,    762,   2864,   4362,    -67,  -2911,   2181,  -9033,   3813,    311,  -2208,   -733,    588,  -4302,   5035,   -154,   -692,    798,  -2583,   1097,    303,   4038,   3279, -13255,   -765,  -1997,   -336,  -6550,   2506,   6306,  -5687,   9784,  -5704,  -1713,  11392,   8815,   5465,   -700,  -7031,   3292,   3010,  -8841,    748,  -9053,  -3475,   5279,   1484,   -546,   -995,  -4787,   1904,  -5114,   1574,   7604,  -7086,  -5791,   4375, -10639,   1020,  -3238,   2754,   4244,  -5356,    535,  -6928,  -6053,    911,   1450,   4068,    365,   7958,  -4169,   -981,    -26,  -2168,    386,   1869,  -1724,  -8769,   1019,   5569,   7608,  -2525,   1703,   3339,    990,  -2148,  -3311,   1864,  -7976,   8715,  -1531,   1866,  -2129,  -2624,   2463,   2268,   4479,   4318,  -8582,   3019,  -3162, -11945,  -4481,    255,   1032,    168,  -1618,  -5226,   7554,   3755,   1179,   -422,   3271,    429,   1716,   -390,    597,   -477,  -2900,    373,   8815,    288,   1870,   -729,  -2597,   2303,    911,   4363,   5418,   -280,    541,  -5544,  -7170,   2068,   4471, -11420,   2557,    905,   1460,     38,   -321,  -3976, -12216,  -9063,   2420,  -7994,  -3956,   5181,  -3199,  -2681,   -528,   4452,    486,   6915,
          7175,   4363,  -3058,  -6635,    881,   6274,  13727,  -7969,   2852,  -3580,   -533,  -3902,  -3978,  -5923,   8418,  -3249,  -4393,   6960,   3498,   9348,   6989,   -633,  -4706,    -68,  -4085,  -1579,   -213,   -266,   4389,   -352,  -6941,   2398,   1870,   -485,  -4472,   -585,  -2686, -12835,  -9054,   5429,   1363,   -113,   6481,   5555,  13174,    687,   8210,   3451,  -3690,  -9104,   1615,   7312,   7701,  10565,  -3684,    635,   2218,   3887,   3266,  -4091,  -3143,  -4805,   5945,  -2540,     79,  -3049,  -8108,    896,    555,   3595,  -8885,   4773,    855,   -119,  -3480,   5928,   2831,  -1366,  -1012,  -6668,   4441,   2109,   1532,   2370,   -559,   1266,  -3167,  -1391,   1931,  -7080,  -9458,  -2764,  -4029,  -4186,  14235,  -3924,    718, -12909,   2184,  12663,   3813,  -1452,  -7031,   -847,   4709,   6649,  11385,  -4851,   4221,  -5788,   3834,   2387,    472,   1241,  -9655,  -3634,  -3594,  -5250,   1650,  -4655,   4776,   3419,   1793,   2021,   2441,    782,   1079,     77,  13003,  -2723,  -9462,   -457,  -7556,   2158,   2915,  -1156,  -1189,   -835,   2479,   3801,   1337,   3973,   2732,  -1564,  -7012,   8858,  -2723,   4122,   9686,   3149,   6785,   1865,  12056,  -2999,  11934,  -1579,  -4337,  -1124,   7345,  -2625,   1714,    385, -14686,   1138,   1068,   8440,  -3110,    -78,  -8934,   -807,  11575,   5480,   3779,   -172,    734,   -483,   1325, -10618,   -603,   5679,   9365,  -1200,   9341,  -1312,   -672,   1718,  11120,   -216,  -4995,   -165,  -6778,  -1097,   2876,  -1835,  13286,    -52,  10883,   3869,  -9685,   4290,  -2463,   5313,   1687,   6110,  -7393,   2156,  -2853,   -343,  -1209,   -142,  -2421,   1521,  -1656,  -1865,   2975,    291,   2571,   2573,  -8716,   5548,  12439,   1914,  -7557,  -4739,  -8938,   2339, -13416,  -1156,   -125,   -871,  -2610,    724,   8753,  -5619,   4210,  -5051,    330,  -4638,    686,  -4418,  15672,   3836,   -834,  -9487,   1787,  -6198,   2683,  -2184,   -302,   -849,  -8876,   1684,   1113, -10989,    248,  -1967,  -4793,   5990,  -7838,   -834,   4347,   4901,   3384,  -4781,  -9197,   4421,    565,   2064,  -8596,   2816,  -1125,  -2788,  -3530,  -6562,   3865,  -3430,  -4840,  -1912,  -3052,   -230,   6913,   -399,  -7700,   8372,   3348, -22631,  -6695,  -8871,   5317,   1832,   5544,  -4948,  -2314,   3637,    934,  -6648,  -9960,   4958,   2979,  -9755,  11724,  -4087,   -214,  -1879,  -6597,   2586,   -877,  -4101,  -3002,  -1360,   2916,  -1888,  -9751,   -795,   3794, -10135,  -1480,  -6048,   1981,  -2180,   3176,   6076,  -8426,   8942,  -3636,   1365,    608,   1434,   9519,    294,    -72,  -1332,   4748,   5816, -11270,   3829,  -2034,   -647,   -305,  -2661,    580,  -1146,  -2083,    374,   1979,  -6298,   2458,   5765,  -3160,  -2485,  -5506,   -882,  -9351,  -1696,   7994,   1001,  -2374,  -2324,   6388,  -1807,  -2876,  -5297,   4732,   5154,  -1948,   1460,  -3558,     99,  -1957,   -169, -10442,  -6020,   2214,    588,   1333,  -1737,    734, -11162,  -5736,   7473,   1481,  -1278,  -8055,  -3393,  -9512, -10132, -16997,    975,    525,   8680,   6997,    190,  -5894,    553,   5439,   2582,  -9418,   2651,  -2551,  -2445,  -6088,  -2041, -11851,   4576,  -1394,  -9773,  -9354,   2384,   5113,   1386, -11470, -12407,   2462,   -348,   1182,  -4553,  -7945,   2428,  -3133,  -3384,  -6857,  -7089,  -2343,   3012,  -9492,  -3834,  -3395,   4534,   -772,   6781,   7086,    176,  -1297,   6726,  -2332,   2821,  -2045,   2227,   1867,   4815,  -2429,   8068,   5524,  -3998,   5108,  -4803,   3426,    995, -12200,    787,  11048,   1338,  -3851,   5783,   9821,  -4797,   3038,  -4595,   7261,  -4962,   5336,  -6141,   1645,   1936,   -890,   1427,   -293,  -4257,  -9353,  -2120,   2429,   -756,  -4533,   6656,   5625,   1922,   8699, -11489,  -1792,   5172,  -5723,  -4749,  -5244,   4861,  -2555,   2265,   4523,   1941,  -1397,   3007,  -5578,  -5043,  -2260,    315,   4034,   -725,  -2982,   2261,   -497,    589,  -3895,   -633,  -5967,  -5562,  -1164,    746,    960,  -5994,  -3184,   6088,    238,   2225,
          2098,   -578,   3516,   7137,  13066,  -3255,    404,  -5094,   5006,  10296,   6833,   -488,   1078,   3096,   8257,   1677,     31,  -9646,   7187,   4392,  -3145,   4723,  -1637,   -846,  -2854,   4218,  -1222, -13105,   5917,     27,   2327,   2197,    596,   6812,    602,   -799,   2610,   4637,   3652,    706,   2648, -10672,  -2389,  -3457,   8627,   1437,  -5774,  -3499,  -3595,   4833,   4129,  11637,   2342,  -2792,   2602,  -2913,   2237,   2319,  -4815,   5850,    966,  -2888,   1449,  -4049,   4096,   -957,  -1319, -17863,  -2746,   4168,   4252,   3540,  -9517,   -327,   1145,  -1383,   -962,    805,   -188,   7354,   4553,   3702,   1736,   5159,  -1623,   8144,    188, -15228,   9965, -15773,   6940,   2198,   8722,  -3883,  -6777,  -6028,   1891,   1938,  -1091,   2190,   1935,   4509,   7364,  -4673,   2388,  -9091,  -1599,   2635,  -2241,    894,  -7307,   2192,  -1141,   2086,   -594,   -515,   2848,   -794,  -5881,   4134,  -6868,  -4561,   3508,     37,   8538,  -4197,   2341,  -3319,   5360, -13454,   5910,   6889,  -6359,  -3539, -16456,   9689,  -3948,  -2347,  -2495,    916,   4279,   6357,  -1050,  -1358,  -1573,    592,   -718,   6907,  -1511,  -2588,   -160,   3370,   2184,  -2184,    665,  -7492,   6046, -20266,  -6369,   6117,   3687,   8512,  -5926,  -1927,  -6021,  -4409,   4084,  -3831,    794,  -4255,   7289,  -6266,  -7546,   2010,     -6,   -452,  -4366, -10948,   8597,   7961,   4293,   1425,  -4493,    827,  -2707,  -5520,  -4507,   7879,   4148,    868,   7058,   2822,    217,   4514,  -1418,   4611,   8527,   3448,   2358,   4943,  13307,  -1114, -17518,  -1175,   2724,  -3187,   4160,   5359,   1453,   2900,   1128,   1280,    985,   1251,   -434,  -2635,  -7463,   1447,  -2112,  -4488, -11692,  -6055,   2623,  -9110,   -830,    598,   -565,  -8085,   2146,    844,   1420,    992,   2196,  -4059,   6925,  -3410,  -2908,   2470,  -2200,  -3646,     79,   -222,  -1172,  -1224,   -774,   3029,  -3741,   5142,  -2122,  -4899,   1814,  -2391,  -4309,  -7229,  -2811,   2011,    682,   -838,  -5914,   1487,   -827,   1512,   -691,  12911,   5255,  -3702,   4040,    257,   1780,    170,   8748,   2141,    596,  -2657,  -5261,   2661,   3589,   5418,  -1217,   7262,  -1033, -12507,    845,  10235,   4528,   -264,   1751,   4494,   4336,   -846,   5369,  -1098,   4555,  -3784,   -405,  -8585,     69,   1166,    202,  -4737,   6235,  -8577,   8122,   2461,   4100,    438,   -578,   3757,  -2081,   6991,   6053,   9686,   4557,   1128,   2077,    -21,  -4768,  -1289,  -1916,   2857,   -627,  -3436,   1216,   1428,  -4603,    112,    709,  -2864,   2539,  -1721,   2498,  -1037,   9773,   2787,   3333,   5196,   2434,  -2103,   2287,   3497,  -8523,   1323,   3824,  -5600,  -3280,   7425,  -3015,   -213,   4147,   2289,   3794,   2582,  -2677,    925,  -1399,  -8534,   1345,  -6665,  -5675,   7691,   2187,   1373,  -2077, -10460,    363,    177,   2643,  11753,   1786,   2536,  -3490, -11191,   3512,  -2692,   2559,  -9150,     69,   4126, -11504,   1385,  -1977,   5768,  -4866,  -3732,   4509,  -2513,  -5048,  -5322,   1758,   4737,   1542,   8121,  -1687,  -4816,  -4990,    343,  -2510,   2269,   6230,  -4439,  -1716,  -1540,  -6023,  -6199,   5820,   2662,    792,   4610,   -968,  -1560,  -3291,  -1562,   6012,   1218,  10101,   4005,  -3300,   6019,  -2793,  -4238,  -1262,   8660,   3411,   5713,    944,   3917,  -1099,  -4336,  10059,  -3943,  -1138,   2094,   2565,   6348,  -1260,   8326,  -4031,  -2206,  -8643,   6203,  -4437,  -3774,  -2091,  -4258,    211,   2228,  -6044,  -1891,    438,  -7242,  -4458,    768,  -4367,   3121,  -7818,  15383,   -513,  -2485,   3809,  -7998,    784,   3567,     -3,  -3840,  -2852,   1350,    491,   5302,  -1320,   3034,  -4345,  -5443,   7927,   4757,   1554,   1585,   2309,   3590,   -207,  -2329,    609,  -6044,     57,  -6147,   -402,  -3070,  -1902,   4616,   5105,  -5921,   4846,   3842,   2091,   1317,  -1637,   3665,   6398,   8381,  -1447,  -2471,   2937,   -985,   4243,  -3370,  -6032,   7983,  -2299,   1547,  -2330,   -933,   3115,   4068};

    const static Filter<int16_t> l3_a_compress_filter(l3_a_compress_filter_element, -23, {1, 1, 64, 64}, {1, 1});
    const Filter<int16_t> *get_l3_a_compress_filter()
    {
    	return &l3_a_compress_filter;
    }

    const static __attribute__((aligned(16))) int16_t l3_a_compress_bias_element[] = {
           216,  -1574,    518,    725,   -113,   3840,   2126,   -403,   2585,    873,  -1265,   1800,   1399,   2760,  -1127,   1811,   1750,  -3172,   2378,    -57,    518,   -101,    101,   3779,  -1849,   3651,  -1541,   2290,   -934,   -252,  -1079,    213,   1856,    -60,   -876,    -51,  -1547,  -2829,   -371,  -2101,   2121,  -2422,   -216,   1841,   3027,    242,   1072,  -1474,   3295,   -101,    586,  -1383,   -526,   1475,    377,    424,  -1381,   1694,   2347,   1726,  -2005,    972,  -1005,  -1456};

    const static Bias<int16_t> l3_a_compress_bias(l3_a_compress_bias_element, -12, {64,});
    const Bias<int16_t> *get_l3_a_compress_bias()
    {
    	return &l3_a_compress_bias;
    }

    const static __attribute__((aligned(16))) int16_t l3_b_depth_filter_element[] = {
          6583,  -8431,   -510,  -5443,  -5628,   -608, -10144,  -2165,   -261,  -1781,   6963, -10390,   9360,   1687,  10816,  -5733, -16272,   3553,  -1723,  -4201,   7054,   5766,  -6769,  -7861,   1066, -13915,  -1115,   5891, -10234,   -667,   -872,   5740,  -1404, -16582,  -5910,    706,   1146,  -7507,  -3973,   4407,  -6751,  -6755,  -9424,  -1203,    348,   6885,  -1899,  12563,  -4197,   5713,  -9970,   4963,  11135,   4129,  14875,   7078,    353, -15972,   5779,  12004,  -1783,  -2377,  -4810,  -3576,  -6344,  -3792,   4048,   6531,   1167,   5434,  10951,   5586,    336,   -243,   3494,  -9431,  -2351,  -2298,   9380,   3551,   1912,    369,   8657,  -7227,  10328,   7815,  -6563,   3120,   6023, -10126,  10899,   5598, -12673,  -9489,   4597,   4653,   7450,  -2060,   -908,  -8459,    649,   5309, -10925, -16563,   6103,   4496,   -283,   3850,  -6522,   3557,     15,     45,   1678,  20470,   1024,    461,   2391,  -5594,  -1872,   8113,  -6289,  -1676,  -2629,  13706,   -797,  -8638,  -5336,  11193,  -5166,   -246,   1671,   3476,   4276,  13180,   1110,   2189,  12353, -15518,   1114,  -3638,  -5869,  -5642,  -1775,  -5750,   1516,   6730,   -970,   2315,   -503,   2787,  -6793,  21521,   -522,   4224,   3514,   1457, -10872,   4476,  -2013,   7919, -14208,   5084,  -6490,   1375,     92,  -1730,  11902,   -322,    904,  -7928,   9412,   6512,  -1286,   1524,  -3201,  -3230,   6038,   8118,   6761,   1207,  13403,  -8236,   6134,   6695,   1610,   2585,   6962,   3019,   3908,   5104,  -8682,  -2816,   1483,  11680,  11138, -14160,  -3352,  10176,   -760,  -7668,   1676,   5508,   6970, -20237,  17934, -12718,   7885,   3287,   8314,  11310,  12406,  -2197,  -4989,   3161,   4393,  -4307,  -5100,   2362,   1833,   5061, -11613,   -556,  -3661,  -1095,  12701,   7212,    463,  -7797,   1882,   8615,   1660, -12327,  11700,  -3279,   1085,  12893,   3622,   6658,  -7716,  11241,   2013,   1463,   2180,   9733,  -2684,   5020,  -3819,  -1046,   8676,   5424,   2071,  -1603,   -991,   1363,   1021,   4526,  -4484,     -4,   1577,  -4022,  -4944,   1148,  -6618, -13217,   1178, -17990,   2606,  19039,  -7824,   1370,   3581,   4738,   4355, -10272,   1248,  -2986,    183, -12645,  11490,  -7073,   3056, -24338,    561,   2980,   -248,   6789,  -3881,   5771,  -5481,  -7199,  11060,   2063,  -2754,  -2298, -20228, -18600, -12361,  11769,   2255,  -1558,  18779,   2172,  -4879, -10488,  -4068,  -7982,  -2515,  -7246, -11603, -11683,   4967,   3688,   -957,   3213,  -3763,   5912,      2,  14409,  -2614,   6074,   1386,  -1490,   1940,  -3013,   3358,     50,   -254,    140,  -1384,   8285,   6628,   6783,   -726,   -211,   1323,    370,   1665,  11905,   2189,  -1611,  -4429,  -3441,   8906,   8839, -16182,  -6755,  11441,   9100,   4557,    992,   8435,   8136,   4008,   5404,   4352,   2294,   -656,  -3920,  -7856,   1847,   2119,  -6208, -16640,  -2921,  -1080,  -8677, -13117, -11371,   4238,  -7894,  -2471,  15402,    823,   1301,  -7196,   2389,  -4500,   6276,   7378,  -1620,   1229,   1276,   3214,   2241,   9587,  -2267,  -5389,    653,   -708,  -7343,   3699,   6094,   1233,    649,   -613,   5625,  12188,  -7041,   -894,   4582,   3730,   4925,  -6773,   2510,  -3089,  -3833,  -2254,  -3184,   5674,   3764,  -1818,   2431, -11451, -11551, -11868,   8095,    543,  -9227,   1202,   1383,  20389,   -823,   9705,   3500,   3719,   -188,   1688,   2077,  -4417,    159,  -1678,  -5596,   -136,   5600,   8027,   1535,   6986,  -4851,  -5526,   -584,    471,   -711,   2413,  -4140,   3177, -14953,  -8213,   9053,  -6459,   5186,  -3602, -11566,  -4852,   5265,   8076,   9235,   -927,   6238,  -9265,   -962,   6197,  14204,   7851,   6922,  13942,  -5544,  -6065,  -7931,    508,   3723,    812,  -2082,  11843, -10108,   5463,   -239,   5001,   6789,   1911,   9892,   4507,   9973,  -8085,   3744,   2907,  -9164,   7010,   -197,   2461,  -5024,  -4097, -20437,   -910,   3944,   3981,   2203,   4785,   2643,  -8595,  -3283,   8439,  -2393,  -1380,   3695,   -918,   4176,   4180,  -1652,  -1322,   3427,   2683,   2000,
         -6838,  11628,  -8993,  17856,  -3841,  -1970,   2516,  12186,  19183,  -8438,  -5809,  -7756, -13869,  10115,   7838,   2074,   1920,    652,  -2707,   3725,   1157,   2657,  -2591,   3091,   9646,   6262,  -3568,   6546,  -2554,  -1236,  -6121,  -5576,   4159,  -7727,   4203,  -1341,  -4835,    466,  -3243,   -640,   1652,  -1779,  -2714,   8866,  -8441,    731,   -819,  -5511,   -455,  -5232,  12009,  15619,   7764,  -4129,  -3184,   6684,  -8086,  16913,   -510,   6540,  -4376,  -8173,   1325,  11769};

    const static Filter<int16_t> l3_b_depth_filter(l3_b_depth_filter_element, -14, {3, 3, 64, 1}, {1, 1});
    const Filter<int16_t> *get_l3_b_depth_filter()
    {
    	return &l3_b_depth_filter;
    }

    const static Activation<int16_t> l3_b_depth_activation(ReLU);
    const Activation<int16_t> *get_l3_b_depth_activation()
    {
    	return &l3_b_depth_activation;
    }

    const static __attribute__((aligned(16))) int16_t l3_b_compress_filter_element[] = {
          1778,  -1186,   2312,  -2446,  -3373,   1314,  -8440,   2642,   2769,   4766,  14310,   -743,   3183,   3450,  -1683,  -1761,  10115,   3111,   4506,   7455,  -3389,   1358,   -118,  -1490,  -2063,   5766,    535,   3739,   5280,  -1139,   -502,    809,  -3270,   7908,   5491,  -5700,   4477,   2434,  -1600,  -7939,    -26,  -3604,   -110,  -1987,  -1060,  -1461,   -609,  -2200,  -6140,  -6816,   9624,   1730,   7852,   3648,  -2441,   1787,   3344,   -525,   1984,  -9067,  -4020,    916,    764,   3800,   5066,  -3620,    -31,  -6390,   3937,   9587,  -3025,  -1199,   8639,    156,  -1257,   4622,  -7897,   3902,   4396,   1283,    285,    943,   7071,    879,   2520,  -1165,  -2671,  -7451,   5404,  -1013,   7280,  11664,  -1783,   7722,  -1080,    110,   1395,   7352,   4319,   6318,   -661,   2196,  -2370,    768,   9044,   1288,   7992,   6007,  -8124,  -3198,   1324,   3760,  -5045,  -4725,   5950,   2928,   5986,   5182,   2421,  -2042,   2503,   2957,  -9101,    459,  -3989,  -2792,   4452,  -1401,  -2424,  -1391,  -3250,   1094,   -753,   1566,   3143,  -7351,   9984,    332,  -3987,  -6171,   2483,   1113,  -6850,  -6974,   5529,    172,   1336,    -78,  -5267, -14026,    890,  -3037,   1745,  -7992,   6722,   2275,   -413,  -2681,   1062,    618,    554,  -1703,  -2673,  10921,   1338,   3836,  -4274,  -2340,   3408,   8017,    598,    884,   7686,   4658,  -3533,  -7284,  -6187,  -4630,  -5441,  -4525,   1312,     79,  -3223,  -3473,  -2433,  -3252,   9198,   5814,   2157,  -8502,  -4139,   -884,  -2547,   2341,   1016,   1397,  -1066,   -696,  -5852,  -2773,  -5978, -10030,  -1676,   1342,   1593,   5097,   4365,  -6996,  -1187,    542,   -367,    567,   1217,  -1023,   -556,   1443,    474,    283,  -9554,   1497,   2662,  -1775,  -3310,   6272,  -4820,  -1982,    212,   4821,   -846,   2986,   1708,  -1629,  -3023,   3603,   7306,   2016,   6154,  -2665,  -1088,    153,   1103,  12458,   9289,    586,    -96,  -2074,  -2876,   2457,   6346,   1975,   3852,   2935,   2893,  -4372,   6824,    604,   9626,  -1669,   1790,  -2993,    517,   -823,  -1609,    324,   3652,   6057,  12178,  10387,  10693,   5379,    843,  -3333,  -2373,   2440,  -8825,   2957,  -1419,    403,  -1254,  -2022,  -6584,  -2175,     16,  -1837,  -1903,  -1128,   -623,  -7325,   1781,  -1865,   6211,   -716,  -5952,  -3015,  -1165,  -2577,   2714,  -1016,   4258,   2862,   -878,    853,   1738,  -2609,  -6176,   8306,  -1814,   2740,  -3408,   -726,   2247,  -1965,   -545, -10858,   6020,  -3212,   4449,   6212,  -4384,  -3471,   3158,  -2044,  -1281,   3398,  -8338,  -6659,   -859,  -3887,   1128,  -9964,   2216,  -4300,  -4777,  -4424,    747,  -3296,   1819,  -2674,  -6154, -10529,   1363,  -3203,  -2372,    -16,  -9080,  -5644,  -1930,  -2997,  -1760,  -2163,  -7512,    614,  -1200,  -2185,   9404,    403,   1273,   5509,  -1299,   6655,  -5385,    901,   7589,   9603,  -1537,   -537,   1977, -10913,    203,    668,   2559,  14257,  -5905,  -4316,   2094,  -1538,  -2241,   2034,  -1244,   7125,   -414,   6099,  -4223,  -2738,  -9299,  -3964,   3674,  -2130,   1185,   7181,  -2979,  -4017,   2194,  -1181,  -3430,   4952,   -635,   -296,   4866,  -2744,  -8018,   -152,   5531,  -5485,   4407,   3017,   1740,  -9203,   2913,  -8403,   -505,   5025,  -3964,     55,  -3297,   4307,  -4946,   -319,    618,  -1834,   4583,   5426,   2372,  -5395,   2391,  -3701,   4427,  -3534,  -4271,  -2423,  -7866,  -4556,   3015,  -1411,  -1696,  -2531,   1694,   -771,  -3433,   2445,   2352,   -153,   -138,   2205,  -2544,   2079,  -2337,   4582,   9730,   2542,  -1626,   2693,  -5764,  -8126, -12766,    -18,   4344,   1204,  -3047,  -4612,    316,   6541,   3497,   -416,   1387,   1557,    266,   4779,  -2482,  -8956,  -1712,  -1147,   2082,  -5382,   1346,  -4931,  -8139,  -3270,   1987,   4899,  12807,   3409,    737,  -2497,  -9512,  -1422,  -4351,   -219,   3433,    334,   1528,   3071,   2952,  -4653,   -697,  -1462,   1835,   2068,     60,    369,  -2691,  -2135,   -636,   -219,  -2002,   1460,   1139,   1019,   3157,  -5436,  -2935,   -174,
         -5054,   -477,   6029,    918,  -1088,  -2768,   5798,  -1859,  11544,   1993,  -5981, -11567,  -1103,   1980,   -386,  -2477,   2634,   4490,   3319,    679,  -5326,    432,  -3240,   3809,  -3068,  -8234,  -1827,   4131,   5365,  -7413, -13010,   3904,   1630,   -459,   3883,  -6842,   9849,   1173,  -5008,  -3144,  -5711,   2053,   -206,  -6234,   1958,   3064,   3327,   -440, -11183,  12998,   8350,   -727,   -732,  -4079, -10386,   2224,   7835,  -1447,  -4696,  -2106,  -4806,  -2448,  -2415,   -427,  -1818,   2597,    140,  10642,   3283,   7411,   9647,  -1383,   3734,    348,   3106,   3371,  -9157, -10749,  -4029,  10754,   2683,  -1281,    365,  -8098,   1029,   2696,   7152,  -2891,   1386,   2052,   3056,  -1147,  -1580,   1027,  -2765,   5684,   8259,   4446,   6439,   -325,  -5343,  -2924,   5467,   1434,   7151,  -8720,   1707,   -871,  -6985,  -2479,   6527,   2625,   7531,   -397,   8760,   2956,  -2272,  -9720,   3586,   2634,   4603,   8103,  -2891,  -9296,  -2867,  -3308,  -4560,  -1895,   6897,  -2801,  -7024,  -1220,  -9199,  -7545,  -1160,  -4745,   9915,   4856,  -9914,   1343,   1096,   8303,   3306,   6545,   7994,  -6068,  -1565,   3198,  -3648,   3762,   4466,  -3783,    810,   9632,  -2186,   6549,    802,   1031,  -7804,   4593,   3981,  -2841,   6973,   9100, -10885,   3623,   2652,   4864,   1675,  -2890,  -3083,  -4080,   2567,   4848,  -5011,   3243,  -2358,  -3473,   1706,   2387,   2289,   3863,  -4621,   6080,  -4173,   3972,   2141,   8700,  -4236,  -2490,   6013,  -1154,  -1859,  -4429,  -2804,  -5250,   3589,   1061,   -273,   5691,   -198,   3340, -13523,  -2882,   4182,   1445,   5218,   3270,    248,   -873,   1407,   1922,     57,  -1272,   -196,    331,  -3869,    103,  -9702,   3178,    383,   3122,   1587,   2436,  -7214,  -2102,   6281,  -1907,  -2953,  -3190,  -4022,   2418,   1292,  -4986,   -825,  -2965,  -4819,  -1068,   1951,   -486,   4576,  -3960,   1707,    -72,  -6066,   3560,  -5641,  -1676,  -1381,   5218,   7448,  -3945, -11328,  -1988,   4156,  -2448,    572,  -8548,   4248,  -9054,    417,   1007,   -262,   2547,  -1466,  -1052,  -2221, -10349,  -1542,  -3083,  -2243,  -6819,  -1887,  -6548,   3635,  -7430,  -4528,   7111,  -3765,   1843,   2179,    298,  -1645,  -5831,  -1039,  -5934,   9890,   2173,    175,   -879,   3703, -17909,   8926,  -5794,  -3351,   3134,    767,  -5059,  -5686,  -5304,   5895,    785,  -4068,   2720,   5200,  -5670,    973,    577,  -1939,   2197,   -373,  -1433,   2696,   8228,   5799,   1345,   2328,   8341,    842,   2862,   4347,  -3207,    981,  -3647,  -3359,   1199,  -3103,  -3700,  -5009,   6179,    182, -11611,   1734,  -5062,    601,   -560,  -9799,  -4749,   9014,  10312,   5461,  -4229,  -3019,   3147,    -62,    866,   1966,   2157,    106,   -182,  -2956,   3256,  -1971,   5381,  10268,  -4354,  -1207,  -4589,   4565,  -3953,  -1731,   5738,   3418,  -3896,  -2162,  -6300,   2097,  -3790,   1679,  -3057,   8027,  -5192,  -2530,  -4806,  -2913,   9900,   7548,  -1009,   -241,   3785,   -818,   1565,   7675,   1029,   8774,   3439,   2588,   8663,  -2124,   4442,  -2402,  -2432,  -1793,  -5906,   4830,  -8889,   2205,     40,   -881,   5213,  -6852,    291,  -1275,   4539,   1922,   8403,  -2443,   -975,  11967,  -6212,   7725,  -3037,  -1480,   4780,   -535,    643,   4182,  -6558,    -84,   5909,  -7176,   -826,  -2487,   5035,  13560,  -2454,  -5931,  15785,   -624,    226,   7101,   4985,   -366,   -875,  -2068,   4581,   5678,   9997,  -1217,  -3025,  -7277,   4360,   7330,  12623,  -1486,    269,   3126,   3990,   4943,   2473,   2887,   7571, -11001,   4899,  -6482,   4710,  -5793,  -2735, -10943,   -141, -11590,   5622,  -7320,   -714,   7357,  -2098,   2109, -13062,  -5254,   1632,  -7605,   7988,  -4102,  10644,  12354,  -1501,    561,  -1069, -14411,   4538,   5587,  -1920,    750,  -3441,  -3367,   4323,   2396,   4523,  -6607,   8061,   8193,   -911,  -4242,   -784,  -1438,   2021,  -3113,    133,   3099,   -503,  -1372,   4192,   2922,   3053,  -4362,   9646,   -856, -10185,  -9429,  -1318,  -4394,  -1773,
         -5595,  -7509,   1469,    -78,   1553,  -6071,   4840,   4565,   3893,  -3367,   4362,   7858,   5858,   1542,  -1704,   1141,   3319,  -6052,   1734,   6042,  -4480,   3039,  -2100,  -1518,  -2535,  -8318,   2425,  -2279,   6493,  -4156,   2988,  -3016,  -5242,   1692,   2393,  -4500,  -2033,  -1026,   -337,  -2744,  -1253,  -3277,   1374,   -497,   -379,  -1490,    699,   6726,  -2795,  -4493,   1186,    235,   4647,   2730,    -50,  -5714,   4327,    195,   -545,  -3594,  -2900,  -8856,   8637,   4290,   3323,   2649,   2839,   4228,  -6983,  -6288,  -5492,  -3719,   4991,  -7823,   -403,   3269,   3100,  -1415,     15,  16446,  -5370,  -1897,    884,  -4509,  -1623,  -3622,  -4097,  -1411,    216,   -449,  -3543,  -3252,  -2871,   8427,  -7378,   5827,  -5135,  -6624,   4618,   4984,   4070,  -3171,  -3806,    117,  -1480,  -5914,   2229,   5872,   -927,  -2017,  -6986,   -992,  -1958,  -5973,   1797,  -2506,   1977,   2498,   3052,   1433,  -1939,  -5538,   -344,   4098,  -2287,  -2783,   -173,   6518,   2069,   3932,  -1160,   5687,   2858,   4255,   -612,  -2691,   5850,  -2106,  -1059,    707,  -5915,   2957,   4296,    870,   3432,  -6093,  -6828,  -2129,  -4856,  -1402,     58,  11047,  -4266,   6274,   2528,    464,   -286,  -1510,  -2259,  -5485,   4222,   1587,   1479,   6248,   -573,   7804,  -7681,  -4835,    196,  -6919,  -4333,   5360,   4781,  -5037,   -434,   -969,   3325,   4036,  -3047,  -9008,   4262,  -4615,   -846,   8065, -14886,  -8912,   5200,   4825,   2840,  -7199,  -5587,  -1054,   6213,   3792,  -2713, -10766,  -9849,  -7254,   3662,   4493,  -4009,    778,   2789,   5305,   1526,   3305,   -432,  -5885,  -1329,   2418,  -3018,   -491,  -3065,   1314,   1073,  -1187,   8532,   4176,   8786,   4064,  -7062,  -1397,   3375,   4077,   2159,   1093,  -8222,   3254,   3847,   -272,   4443,   2496,   1732,   2653,    697,   1442,  -5014, -14042,  -5405,  -2541,  -1072,  -2738,  -1535,   2773,  -2384,  -2197,   7340,   1379,  -5236,  -3490,    282,   6493,    741,  -9602,  -4671,  -4129,   2368,   7442,   2428,   3690,  -1524,   1416,    504,   5172, -10837,  -2619,  -5063,   1836,   3353,   4965,  -5886,   3125,  -2069,   7882, -10202,    591,  -2714,  -7479,   2304,   2882,  -1312,   3982,  -2014,   3069,  -3187,   7099,  -1436,   2557,  -3905,   5501,  -5016,    769,   2038,  -1815,  -7692,     12,   5977,  -5606,  -8963,  -1067,  -8808,  -2830,  -1387,    291,    698,   1034,   1167,  -5084,   2345,  11228,  -7949, -11278,  -2909,  -7784,    841,  -9780,   3237,   8983,  -9007,   -718,   1774,  -4413,  -3500,   2349,  -4363,  -2125,   -930,   6174,   1679,   1647,   1625,   3168,  -6987,   1612,  -4557,   2441,  -2101,  -6169,    779,  -5336,   5941,  -3641,  -1407,   4618,   5421,   2999,    236,  -3918,  -3584,   1501,  -1159,   4330,   7573,  -7213,   4556,  10252,    525,   1663,  -1341,    929,   4044,  -3614,  -7039,   3816,  -4518,   -453,   2051,   2228,  -3107,  -2661,   6659,  -2316,   1982,   1897,  -2915,   -800,   6102, -13826,  -4577,  -3876,  -1193,   2352,  -5044,     74,  -4288,   5920,    632,   5707,      6,  -2381,  -3590,   5021,   6337,  -1931,   2154,   3950,   3761,  -2157,  11996,  -2770,  -2147,    761,  -5313,   4484,   3009,  -5963,  -5354,   2691,   3273,  -8595,  -1924,  -5477,   -496,   5390,  -6552,  -1388,   3902,  -2901,   -872,  -1042,   5498,   -215,   2020,   5560,   8554,   2974,   1605,  -8847,  -5150,  -2907,   2024,   1539,   1680,  -5571,   2224,  -6350,   -690,  -4705,   -829,  -7181,  -6468,   6116,  -4456,    420,   1941,   -876,  -1787,     35,   2863,  -3167,   2516,  -3551,  -1423,   2807,  -1114,   4014,   -308,  -8985,  -2283,   2274,   6557,   -584,   -907,   4479,   1079,  -4478,   3007,    260,  -3514,   1337,   5864,   1100,    430,   1493,   3738,   1111,  -2656,   9029,   2936,   -469,   7380,  -3465,   7066,   1627,  -1468,   4917,    391,  -1635,   3496,   3988,    306,  -2582,  -6362,  -1369,  -1081,  -1060,   2592,    896,    330,   -838,  -1159,  -4245,   3922,   1576,  -8764,  -1291,   1877,  -3505,  -1106,   5271,   2325, -10996,
          2705,   1897,   -114,  13754,  -1996,   -911,  13173,   -482,  13906,   2995,   1616,  -5082,  -5744,  -1410,    171,  -5305,  -5485,   4917,   2093,  -3603,    143,   -980,   6720,  -4647,   7628,     41,   1502,    223,  -2509,   6280,   2654,   9561,  -1831,   -689,  -2786,  -2052,   2419,   4659,  13553,  -2454,  12665,   5816,   2075,   6372,   5410,   -993,   2461,   -133,   -732,  -5179, -10089,  -9663,   8071,  -1026,   2047,    577,   2793,   5109,   7310,   4324,   1515,  -2602,    895,  -4792,  -2654,   2357,    -18,  -1329,  -4535,   -320,   -493,   5317,   6045,   6310,    662,   6168,   7268, -11523,   1588,  -7159,   5322,    418,  -1808,  -5379,   3806,   1817,  -5331,   5097,  -7546,  -6519,  -6171,  -3749,    853,  -9283,  -2857,  -7551,   2592,   5323,  -2092,  -8233,   9879,  -3003,    217,   6601,  -1823,  -6907,   4297,    166,   2851,   -730,   7115,   1075,  -2470,  -3987,  -6837,  -2854,   1558,  -6802,  -2851,  -3114,   7737,  -2962,   1444,   7020,   2621, -10930,  -2264,  -3784,  -3920,   1008,  -9966,   -526,   1318,  -8856,   7079,   -663,  -3947,   3294,   5167,  -2938,  -6520,  -2844,   -828,   5686,  -3865,  -1858,   4520,  -3489,   7680,   -739,  -5983,  -1855,  -1758,    868,  -5161,  -3799,  -1824,  -3105,   5967,  -3690,   -181,  -2167,  -1533,  -5575,  -7003,   2633,   2792,  -5745,   4104,  -3142,  11050,   3252,   3905,   2165,  -3279,    826,   8598,   3424,  -2680,  -3016,  -8264,  -6773,  -7280,  -3616,   3558,  -2457,   -680,  -5620, -12266,   5533,   1391,  -4010,  11918,   3455,  -1070,  -8552,  -6900,   3073,  -5074,  -1348,  -4120,    599,  -8054,   3571,   7621,   3582,   7699, -11618,    295,    702,  -2401,     11,   3001,   -314,    206,  -1693,    924,   8478,   6986,  -2145,   3366,  -2189,  -5486,   9006,   9555,  -2707,  -1281,  -2444,  -2215,  -2387,  -3848,  -1869,   4427,   6048,  -3783,  -4623,  -6966,  -5189,   1084,  10057,   5601,   6897,  -1048,  -3051,  -7506,   4004,  -1092,   4212, -14954,  -1233,   9541,   1038,   4171,  -1903,   2982,  -7023,  -7032,   2717,  -1783,   5707,   4682,  -7866,  -4498,  -8527,  -4538,  -4935,  -7054,   5789,   4621,  -5298,   -551,   -895,   1491,    253,  -2155,  -4664,  -3803,      2,   3191,  -4276,  -5030,  -2419,  -4066,   2429,   1017,    584,   8535,   4278,  -7401,  -6734,   1340,  -8022,  -5589,  -2336,   4687,  -9339,  -4680,  -3424,   2768,  -9413,  -4401,  -1662,  -3480,  -2192,   2648,  -8472,  -4857,  -5952,  -4136,   3813,  -1246, -13071,    177,   3430,  -8121,   1776,  -3077,  -6708,   3927,  -6072,  -3158,    517,    -64,     43,   7991,   -145,  -2319,  -5229,  -3684,   -545,  -3478,  -3541,  -1322,     94,   3973,  -3169,   4253,  -1382,   4772,   -398,  -2216,   4861,    159,    -76,   9880,  -3849,  -1631,  -3807,   1915,  -2553,  -4777, -11250,   3457,    841,   1487,    372,   8006,  -9916,   1992,    894,   4198,   2034,   2566,    575,  -1102,    964,  -1156,  -2239,  -4769,  -5211,  -9265,  -4103,   3748,   4781,   6226,   5820,  -3933,  -1404,   4931,   1236,   7113,    188,  -1719,  -9941,  -3008,  -2225,    832,   2886,  -4573,    550,   3664,   1730,   -680,   2823,   1766,  -2801,  11322,   2895,  -5420,  -1621,  -2149,    -21,   2423, -10671,  -4619,   1840,   1573,   2944,  -5793,   1498,    937,  -5432,   4242,  -2152,   2607,  -3419,   1411,  -1396,  -2476,   1975,   -667,  -5170,   -474,   -693,   1272,  -4193,  -4214,    -84,   8799,   3744,   -197,  -2673,   6937,   4171,  -6321,   4251,  -3471,  -2773,  -7309,  -2373,  -5714,   3197,  -4509,   3589,    471,   -722,  -6216,   2500,   2101,   7073,  -7905,   4388,   -470,  -1746,  -7208,   2568,  -5199,  11048,   7247,   6877,   9963,   9517,  -1419,  -9718,   9297,   3816,  -3669,  -2092,  -3482,  -1076,  -1221,    922,   4640,  -5185,  -8753,  -2911,  -9162,  -6487,  -5470,  -6018,    698,   3613,   1435,  -4907,  -5539,  -2530,  -2268,   2258,   -972,    789,   1690,   -198,  -9558,    455,  -4959,  -6529,   3718,   2235,  -3473,     82,  -5934,  -1041,  -2465,   3630,  -3385,   2479,  -3468,  -9162,  -1784,  -5654,   -427,   -902};

    const static Filter<int16_t> l3_b_compress_filter(l3_b_compress_filter_element, -23, {1, 1, 64, 32}, {1, 1});
    const Filter<int16_t> *get_l3_b_compress_filter()
    {
    	return &l3_b_compress_filter;
    }

    const static __attribute__((aligned(16))) int16_t l3_b_compress_bias_element[] = {
          -834,   2463,  -6511,  -3362,   2253,    108,   7202,   6804,  -4329,   1196,  -3287,   2572,   5995,    391,   1533,  -4319,  -2642,   5159,   1240,   -701,   1876,   1126,   3492,  -4233,  -5534,  -3583,   4383,   2399,   2269,   5148,   -210,   3462};

    const static Bias<int16_t> l3_b_compress_bias(l3_b_compress_bias_element, -12, {32,});
    const Bias<int16_t> *get_l3_b_compress_bias()
    {
    	return &l3_b_compress_bias;
    }

    const static __attribute__((aligned(16))) int16_t l3_c_depth_filter_element[] = {
          4123,  -3669,  -4285,   -917,   6980,   8441,   2322,   4620,  -3682,    337,  -7983,   -115,   4102,   2678,  -7198,   4312,  -6794,  -6839,   4956, -10949,   -608,   7616,   4396,  -9816,   1887,   -727, -11594,   8054,   4118,   9298,   3910,  17132,  -3848,   5513,  -7428,  -6183,   6820,   9677,  -2110,  14787,  -7992,  -4062,  11680, -13045,  -1777,   9866,  15679,    355,  -1387, -10772,  -3066,   4146,   -197,   2741,  -2007,   2896,   5712,  15759,  -5959,  -5898,  -6137,   -201,  -2299,   8492,  10192,  -4408,  -7424,  -5893,  -6693,   5043, -11068,   4367,  -1794, -10276, -11104,   7040,  -2375,  -5078,   4241,  -2158,   8549,   3437,  -3616,  -4159,   6487,  -9704,  -1831,  -3709,   1563,   7819,  -2729, -11885,  11360,   4307,    782,  -6124, -12795,  -1240,   5250,  -2001, -12416,  -2181,   7837,  -3443, -10302,  -2832,   5080,   3010,  -2743,  -5359,   3128, -19986,  -7903,  -7413, -14009,   9519,   8988,   1947,  -6483,  -6140,   7171,  -7504,  -2855,   2021,    855,  -8709,   8422,   9906,   2351,  -4088,   2477,   6709,  -3829,   7306,  -5216,  -4057,   5440,  -8856,  -5762,   7162,  11857,   5972,   8209,    361,  -6875,   5012,   3616,  -9932,   6081,  -2218,  -8984,  -2278,   1222,   5341,  15474,  -7745,  -1730,   1119,  -2707,  -6192,  -7601,   6045,   6545,   9891,   7281,  -6510,  15427,   5499,  -2859,   9480,  -2978,   1730,   1436,   4909,  -2463,   6985,  -5318,  -2664,  -2452,  -3707,   4169,   1329,   8891,  -7218,  -2228, -13791,   1435,  -7135,   8167,  -8484,  -7357,    412, -10055,  -4196,  -9441,   2465,  -3775,   3494,  -1364,  -4702, -10123,   -283,  -5125,  -5315,   4642,   9623,   4211,   6982,  -7348,  12784, -11547,   4673,  -5138,  -3743,  -1761, -19736,  -9228,   4424,  12339,   1225,    959,   2600,  -2441,   9067, -14596,   2175,   5156,  10035,   -676,   5667, -14512,  -1555,  13086,   2229,  -5424,  16503,   8843,  -2599,   3400,   1018,   8215,   1714,  10327,   2929,   5432,  -7702,  -1837,  12558,   -854,   2176,   8818,   6065,  -8403,   3656,   2642,  -5079,     22,   -140,   1033,    837,  -6172,   3091,  -1569,   5011,  -7116,  -8578,   -477, -13172,   2464,   4725,  -7640,   5874,   2589,  -9122,   9654,  -2829,   5528,   3219,   4383,    891,   -741,   6135,   3083,   -573,  13408,   -737,  -6521, -12623};

    const static Filter<int16_t> l3_c_depth_filter(l3_c_depth_filter_element, -14, {3, 3, 32, 1}, {1, 1});
    const Filter<int16_t> *get_l3_c_depth_filter()
    {
    	return &l3_c_depth_filter;
    }

    const static Activation<int16_t> l3_c_depth_activation(ReLU);
    const Activation<int16_t> *get_l3_c_depth_activation()
    {
    	return &l3_c_depth_activation;
    }

    const static __attribute__((aligned(16))) int16_t l3_c_compress_filter_element[] = {
          -250,   3143,  -1935,   7998,   -176,    193,   2332,  -2909,  -2935,  -1100,  -5008,   5208,   5574,   -900,   1335,   2734,   4742, -14953,  -2269,  10984,   1275,   2414,   2592,  10382,  -8191,  -4014,   6287, -10731,   -346,  -3590,  -5778,   -304,  -2275,   3752,  -1846,   7999,   1995,  -6062,  -4884,  -6539,   4297,   2331,   4805,   6499,   -907,  -5935,  -5623,  -9608,  -4126,  -7802,   4187,   1301,    281,   3744, -14530,  -3952,   5242,    424,   -503,  -1125,    553,  -2861, -12591,   2453,  -5563,  -4038,  -2790,  -2473,   3435,  -9992,  -1327,   2920,  -1047,   1612,  -4363,   5776,   1005,  10843,  -2613,    253,   1140,    712,   1954,   1922,  -1439,  -8380,  -7626,  -5568,  13514,   5882,      5,  -6665,   1081,    704,   9397,   -490,  -4886,   9981,   4970,  -2419,  -1293,   1496,  11657,  -2111,  -7250,   5339,  -5754,  -1407,  -1835,  -9101,   5784,   3455,  -3666,  -2377,  -4109,  -3674,   -955,   -241,  -9519,   2726,   4193,   8286,   1484, -10711,   5245,   8033,  12985,   -966,   5037,    153,  -5638, -13344,  -3372,  -1509,    523,  -1753,  -1633,  -2919,    -93,  -3130,  -1332,  -3618,  12450,   1274,    657,  -5585,  -1502,  10647,  -1664,    699,  -6744,  -1032,  -9566,   6700,   5335,  -1207,  12248,  -2832,   -108,  -2672,   4604,  -3549,   5124,  -4559,  -4290,  -6454,  -4316,  -5413,  -7719,     59,  -4173,   8558,    827,  -8305,   3580,  -6498,  -9119,  -2424,  -7030,   -330,   -415,   1068,   -533,  -4242,  -7986,  -7476,  -6002,    992,  -2626, -10379,   6785,  -1185,   2806,   6724, -18686,    209,  -6522,  -8896,   6397,   2832,  -4479,    358,    -37,   8770,  -3838,  -7801,  -6002,  -2502,   -471, -20459,    103,  -3478,  -4195,    497,  -2511,   6950,   3315,   1478,    535,  -1803,  -8738,  -4379,   7572,   4544,  -8044,   4212,  -2754,   3497,   1208,   6127,  -9460,  -3250,  -8710,  -6833,  -3679,  -1007,   5512,  -4074,   1615,  -3217,  10342,   -331,   -966,  -3471,  10058,  -1842,  -1561,  -2211,  -3448,  15557,    700,   5681,  -4885,  -3572,  -4292,  -5122,  -8162,    377,   6488,   4362,  -2861,  -6428,   5236,  -2721,   1715,  -5530,   6244,   -497,   5761,  11508,   7857,   5607,   5274,    643,  -3646,  11195,  -8390,  -4062,  -6138,   3577,  -1092,   1453,   -344,  -4245,   5347,  -9357,  -2349,   -420,  -7847,  -7110,     82,  -2099,   4027,  -6498,  -5310,  -1026,  -1585,   3509,   1107,  -8591,   6254,   4356,  -2778,  -5063,   3889,   1550,  -8628,   2378,  -3320,  -9567,  -7993,   2170,   8063,    561,   6925,  15880,  -1460,  -4836,   5189,  -8856,   4381,   7615,  -2526, -11980,  -2796, -11372,   7556,  -8629,   5605,  -1752,   6911,  -8280,  -7136,    959,  -3730,   -684,   6713,   6435,   1720,  -1737,  -3032, -12903,  -5439, -15194,   2662,  -3000,    368,   8164,   -564,  -6751,   -601,  -1635,  -4509,  -1474,  -2155,   9321,   6387,   1960,    775,    130,    774,  10123,   2018,   3772,    575, -16108, -12176,   1301,  -5601,  13285,  -5173,  -2372,  -3408,  -6465,   4252,   5653,  -1748,   1376,    857,  -5685,    -43,  -5504,  -1416,    278,   -867, -12333,  -9915,   2448,   5594,  -2867,   -926,   -934,   -564,  13670,   7187,   4295, -10284,   6063,  -1974,  -2075,  -7241,     25,  -2413,   -395,  -2744,   5253,  -1638,   1038,   4844,  -7207,   1449,    612,   6249,    468,    382,   6264,  -3053,  -2885,  -2353,  -4017,   5352,   2341,   -334,  -2539,   5028,   8297,      0,  -5705,    337,  -5752,  10017,  -4186,  -4072,  -5178,    491,  -2456,  -4636,   6582,   3542,  11974,  -3075,  14802,   2054,  -1502,  -1501,   1991,    128,  -8953, -10196,   4170,  -8853,  12232,  -4483,  -2077, -10665,   1906,   4726,  -6493,   5254,   3294,   2350,     92,  -1958,  -6941,  -5733,  -3027,   -738,  -2242,  -2855,   2245,   5773,   6785,  -9267,  -8002, -10628,  -5589,  -6174,   4859,  -1764,  -5355,   1987,   3806,   1630,   1017,   8129,   6179,   6555,  -8621,   2442,  -8343,   1492,  -2362,   1064,   3170,  12992,   2640,   4861,  -4576,   2663,  -2407,  -1913,  -6503,  -6384,   2477,   2347,   3078,   3006, -12234,  -5286,  10588,  -3749,  -3009,
         -9205,   4504,  -4169,  12603,   -863,   2772,   1640, -11309,  -1402,    903,   4221,   7262,   3081, -15879,   7597,   5221,  -2197,   6230,  -8827,   9532,   2098,  -2948,   8319,  -4506,  -3423,   1006,   -936,  -6575,  -2231,  -3942,  17281,   1779,    249,  -1382,  -2711,   -555,  -3336,   5355,  -2202,  -4946,   7416,  -5560,    237,   -300,   -559,  -5075,  15067,  -4323,    -84,   2218,   7207,   5057,   7942,  -3708,  -1156,   7952,  11267,  18418,   3670,   2454,    346,   9735,  -4909,  -2528,   3247,   9592,  -3276,  -4071,  -8073,   8919,   4685,   9658, -15645,    742,  -5628,  -4496,  14150,  -2658,   2832,  -3537,   2281,  -3185,    954,   1255,   2229,   2928,  -6653,  -9535,  12220,  -1356,  -3141,   -682,     65,   -488,  -4787,  13572,  -4435,   8168,  -5852,  -4813,   1283,   6913,   5041,   6093,  -3556,   8673,   7411,  -6400,   3976,   9616,   3843,    680,   5445,   8187,  -3843,   5917,    141,   6200,  -8966,  -3821,   -616,   7048,  -1554,   8240,   5992,   1385,  -9366, -15439,   6950,  -2430,  -3726,   -648,   4918,  -2741,  -5527,   8536,  -1815,  -7252,   6226,  15357, -11986,  -6567,  11402,   8105,    518,  -5757, -11924,   7746,  15166,  14086,   7494,   5836,   8471,  -3601,   2270,  -1127,   9051,  -9674,  -9690,   6244,   7517,  -4183,   -313,  -6764,   1559,  -6432,   1054,   5529,   4350,  -2883,   3062,  -7063,   4673,  -1278,   7812,    535,  -3909,   2417,    175,  -4420,    513,  -3570,  12728, -20891,   -925,   9453,  -3594,   5210,  11010,   -765,   1691,  -4955,    561,    689,   -378,  16988,  -2167,   5252,  -8493,   5041,   9164,   4473,  -5629,  -8618,   1292,  -1183,    280,  -7685,  -7303,   2031,   4380,   3945,  -3610,   -369,   2381,  -3894,   3810,   3455,   5228,  12445,   1105,  -2646,  -5294,   6527,  -7814,  -7689,    926,   3900,  -4869,  -2841,   1181,   7270,  -1678,    192,   6795,   2862,    270,  -1040,   2275,    696,   3021,   1988,   8541,    492,  13630,   -657, -15242,   5405,   2159,   -865,   7353,  -3755,     49,   7782,  -4754,  -1921,  -2404,  -4515,   1422,   4821,   4858, -10031,   3133,   5340,  -7868,   6789,  -7240,  -3663,   4719,  13896,   4729,  -6806,  -9676,     -6,  -8501,   -243,   3506,  -8986,  -3020,  -6089,   1884,   6158,  -8706,   -605,   2030,   6957,   9999,  -7941,    596,   -144,  -7586, -14442,  -1587,   1166,    -68,    885,   5269,  -8917,  -2902,    521,    116,  -2389,  -1408,  -6278,   9642,   2675,   -917,   1247,  -2017,   5223,   3155,  12199,   7609,  -3512,    783,  10545,  -2153,   1040,   5952,  -8102,    556,   2955, -13230,    140,  -9969,   5533,   3103,  -5976,   2226,  -1245,   2908,   1707,   8394,   -529,   1965,  -3825,   2274,   3441,  14148,   -554,    674,   4607,   5944,  -2362,   5096,  -3604,   5725,   7467,  -2031,    -72,  -7886,  -3399,  -3738,    108,   6374, -10804,  -2388,   6149,   8989, -15531,   -850,  -3749,  -1359,   4128,   4908,  -3463,  -1302, -10897,   3523,  -1136,   6054,  -3944,    901,  -2680,  -1242,   8586,   -226,    807,   3963,  -8749,  -6257,    244,   7412, -13695,   8315,  -6110,   4815,   6301,   1707,    -50,  -6335,   1245,   1118,  -7188,   8779,   5133,   4940,   8568,  -6147,   9052,  -1773,  -4885,   2609,   9188,  10697,  -1969,  -7679,  -5365,  -5109, -11011,   -460,   2105,   2394,   -696,  -3491,    965,   9940, -12377,   -271,   1865,   2205,  -2433,  -6141,   7493,    735,  -4132,  -4453,   7890,   9539,  -1355,  -1189,  -1787,  -9990,  -5419,  -4609,   6750,   7245,  -5846,   3485,  -3564,  -2519,   2201,  -5898,   3588,  10973,  -1710,  -6552,  16618,   2201,  -5731,   1988,   -243,   1632,   4350,  -2645,  -1787,   1830,    955,  -5157,   2838,   6618,  -5486,  -1470,   1572,  10707,   6033,  -6113, -10251,  13727,  -4724,   4673,  17520,  -6806,   8987, -11642, -15127,   3524,   4257,   4587,   2865,   2805,  17327, -11146,  -6012,   8762,  -6132,   4009,   4850,    -60,  -2551,   2745,    977,   6956,  -4238,    819,  -2744,  -4402, -11482,   4980,  -7654,   3093,   4669,    168,   2945,  -2812,  11655,  -5379,   3290,   9748,   3645,   2186,  12565};

    const static Filter<int16_t> l3_c_compress_filter(l3_c_compress_filter_element, -15, {1, 1, 32, 32}, {1, 1});
    const Filter<int16_t> *get_l3_c_compress_filter()
    {
    	return &l3_c_compress_filter;
    }

    const static __attribute__((aligned(16))) int16_t l3_c_compress_bias_element[] = {
          1740,   -505,   2221,   1399,    321,   3158,   1361,   -593,   -607,   -491,   -307,  -2789,    810,   3575,   -260,    745,  -1350,  -2902,   -328,  -2789,  -3492,  -1167,  -1114,    -60,   -395,   1811,   1805,   -864,  -3998,   -903,  -2046,   1744};

    const static Bias<int16_t> l3_c_compress_bias(l3_c_compress_bias_element, -12, {32,});
    const Bias<int16_t> *get_l3_c_compress_bias()
    {
    	return &l3_c_compress_bias;
    }

    const static __attribute__((aligned(16))) int16_t l3_d_depth_filter_element[] = {
         -6273,  10263,  -8522,  -7171,   9562,   4342,  -1642,   3486,  -6040,   -771,   2122,   6596,   5425,  -1580,  -4016,   8465,  -5770,  -1636,  11886,  -1024,  -6979,  -1775,  -7446,  -8243,  -4297,  -5196,  11462, -15575,  10538,  10662,  -8599,  -1463,   3193,  -8865,  -2878,  -4185,   4393,   9426, -14790,  -3365,   1598,  -6686,   2489,  -8138,   -250,   1774,  -4175,   3964,  -6754,   5185,  -7757,   1590,  -2735,   9813,   -805,   2431,  14414,  12765,  -3521,   7588,   1035,   6704,  -8261,  -4504,   3421,   5405,  -7860,   3625,   2097,   1018,   3489,  15525, -13666, -10561,   2909,   5858,    151,   1924,   5878,  -1254,   3528,   7074, -12582,  -4881,  -8716,  -7043,    553,   6463, -10002,  -8134,   1558,   -414,   6572,   6452,  -2589,   2005,   2231,  -1587,   5916,  13036,  -5615,   2642,   3518,   7549,    792,   -610,  -8286,  -8863,  -6175,   -276,  16784,    499,  -3329,  -3275,  10996,   5913,  10770,   5906,  -1393,    576,   2170, -10291,  -3640, -13538,   3449,   2958,  -6964,   6494,   7433,  -6517,  -5400,   8960,   1930,   2552,  -7152, -16345,  -6672,    943,   -202,   1613,  -5112,   -458,  -2367,   1012, -14808,  -9289,  -8439,    544,  18564,   -253,  -9299,  -2261,   6495,  11755,  -9272,  -5470,   2093, -10451,  -1223,  -3942,   1241,  13126,  -1866,  13889,  -6475,  -8073,  -1323,   4743,   3919,  10782,  -9498,  -2666,  -5474,   7726,  -4043,   5073,  -3434,  -6027,   1039,  -4479,    -19,  -5164,  -7349,  -8301,    -40,  -6967,   5177,  12878,   -463,   4393,   7346,  -9402,   4523,    603,    281,   7049,  -1451, -13484,  -2345,    785,   9127,  -1889,   4572,  -7162,   4046,    992,  -2505, -10875,  -5404,  -4822,  -1817,  -4397,   2799,   -703,   7916, -13662,   8086,  -3716,  11490,    927,   8341,  13767,   3861,  10568,   7468,  -7376,   8101,   4214,   3593,   4738,  -6226,  10179,  -2464,  15964,   -743,   9597,  -5730,   7621,  10474,  -6887,   1909,  -3907,  -9187,  -1431,   7845,  -7775,  -1670,   4888,  -7108,   4529,  -5707,   3303, -11136,   5691,  15678,   7972,  -9271,   4978,  -1604,  14539,   -173,   5696,    101,  -6847,  -9018,    733, -11814,   1165,  -3009,  -4412,  -4949,  -4456,   2566,   7628,   3030,  -8997,   7079,   5097,  -5110,  -1495,  13729,   2517,   2451,   2078,   7804,   8953,  -8663,    786};

    const static Filter<int16_t> l3_d_depth_filter(l3_d_depth_filter_element, -14, {3, 3, 32, 1}, {1, 1});
    const Filter<int16_t> *get_l3_d_depth_filter()
    {
    	return &l3_d_depth_filter;
    }

    const static Activation<int16_t> l3_d_depth_activation(ReLU);
    const Activation<int16_t> *get_l3_d_depth_activation()
    {
    	return &l3_d_depth_activation;
    }

    const static __attribute__((aligned(16))) int16_t l3_d_compress_filter_element[] = {
          5327,  -7655,  -3368,   4934,  -2825,  15456,   4587,  -6093,  -6959,  10369,   7059,  -3362,    210,   2553, -12084,   -235,   5920,   8076,  -6861,   7675,  -6017,  -5028,  16216,  -6049, -13657,    805, -11649,  -5444, -12247,   7867,  -5255,  -5222,  -1291, -12717,  -5111,  15238,    153, -16110, -10029,  -3708,     85,  -9514,   8011,   8248,   4105, -11725,   9434,  -9425,  -5587,   7478,  -8431,  12748,  -4723,  -7121,  -1945, -12952,   2937,  -9711,    655,  -8336,   3238,   5654,   9796,   3151,   9283,  -7988,  -2423,   2791,  -3011,  -1005,   8314,  -9578,   7591,  13667,  -1263,  -7809,   4575,  10518,  -6571,   3915,  10110,   -690,  -5726,   7992,  -1913,  -2177, -10046,  -6908,   2265,  -4635,  -1821,  -6253, -14661,    827,  10122,  10233,  -7730,   3512, -16330,  -2427,   5251,  -2710,  -2176,   6938,  -2218,  -3977,   6582,   -941,  -9289,   8790,  -8613,   2074,   4542,  12804,  -9352,  -2629,   2920,    -77,   6657, -23540, -13468,   -482,   4626,  -8319,  -6860,  -1517,  -3699,   2193,  -7096, -11961, -13205,  -7877,  -2287,  -6078,   -993,   5836,  12414,   3630,   4619, -13545,  14437,  20856, -13700,   3982,   1126,   1724,  -5935,   -875,   3291,    995,  -9045,   9859,  10844,  -2476,   9859,   2232,   5209,  -6728,  21316,  -5670,  10223,  -6690, -10455,   7100,   3217, -11287,  -9136,    961, -14546,  12616,   2759,   7745,  -2108,  -7577,  -1975,   3231,  14922,  -7734,  -3159,     11,   5008,  -1305,  -2543, -17109,  13058,   4375,   3836, -10566, -11156,   2146,  15236,  -9166,   9131,  16311,   3155,  -2768,  21758,  10091,   4264,    149,   -175,   7447,  -5886,    585,  -3281,   8105, -16669,  -1392,    871,  -7205,   2767,  -2328,   2860,  -5040,  10229, -19687,   3247,    252, -16209, -13590,  16591,  16310, -17896,  -2055, -12052,  -6509,  -5958,  -9607,  -5196, -16466, -11608,   8065,  21440,   3348,   7986,   2300, -10899, -10760,  -2890, -19832,  17895,  15250,   1814,   -369,    695,   1544,   4416,  16029, -10997,  -3096,   -688,  17479, -22882,   1024,  -6102,  -5787,  -6706,   3592,   5751,  -8596,  -4161, -17402,   1330,  -8629,  -5597, -17601,    262,   2370, -11529,  21018, -17606,   -260,  -7308,    859,  -5496,  -6216,    672,  -4424, -12844,  16092,    -42,  -2386,   -300,   2886,  -8320,  -7412,   5165,   2188,  -1221,  -1891,  -5514,  -2744,   4468,   -831,  -3503,  12544,  -4583,   1812,  -5177,  -9061,   6580,  -1732,   5748,   7156, -10121,   3286,   4391,  -2013,  -1924, -18252,    428,   2992, -12465,   -495,   4237,  14050,   -193,  11056, -20919,  -8471, -22299,  -4988,   7722,  17963,   2392,  -2825,   4747,   -455,   -459,    415,   4296,   6236,   6394,   9429,   3478,  -7426,  -7982,   8671,   -507,   2113,   9110, -13051,   6221,  12748,  -7919,  10482,   2961,   4257,  21844,   6997,  -3802,  16928, -14131,  -7326,    974,  -2284,  -1311,   8735, -12595,  10274,   -790,   2563,  -4335,  -2330,  -7387,  -7592,  -2375,   2919,  -3118,    667,  -5574,   -903,  -1583,  15541,  -9601,  -2498,  -5064,  -5438,  11305,  16960,  -4677,   -639,   4531,  17918, -13082, -12879,   1526,   7489,   4550,  -1849, -10008,   1348,  -5347,  11412,   7885,  -3863, -11711,  -1120,  -9944,  -8677,   9717,    329,  -2905,   9961,   7148, -15193, -12394,  -9732,  -3283,  -7700,  -9959,   1583,   2803,    115,  10744,  23615, -13351,  -4533,   -627,  11243,  -7785,  -7244, -19529,  14218,  -5355,  12253,  -6549,  -1523,  -3171,   1376,  -2783,  -3688, -10903,  -1851,    331,  -1025,   8266,  -6067,   8300,  -5240,  -5573,   3603,   5225,   3657,   4416,   6585, -25947,  -1795, -14960,  -1241,   3082,   9629,  -7194,   5963,  -1164,   1560,   7858, -12378,  -5721, -11771,   3897,   6903,  -5496,   2089,   9624,   5597,    523, -14967,     61,   9718,  -3825, -10318,   7487,   8551,   3421,  -4831,   9869,  -1660,  12137,  -3099,  -8987,    -31,   4545,   3194,   1265, -12990,   1947,   6601,  -3215,   2316,  10167, -15034,   9558,  -3389,  -4215,  -1052, -12139,   1222, -11197,  10596,   -644,   6968,   -660,    682,  -4395,   4272,   -491,  -4119,   8339, -12186,  -4601,   6229,
         -8054,  -4071,  -3103,   7695,   7279,  -2763,   2911, -12873,    466,   9468,  -5700,   2887,  11453,  -2343,  -1341,  -3989, -11358,   9420,  -9216, -21793,  -3786,  -9107, -18697,  -5772,     91, -13229,   6609,   6043,  12456,  -2348,   1426, -23529,  -1819,  -6642,   4013,    218,  12817,   -428,  -7698,   1979,   8710,  10954,   6832,  -1976,  16011,  -4390,  -9508, -10104,  -6372,  10529, -11476,  -7456,  10512,    -16,  -8737, -11566,    585,   -500,   -806,    450,  -1559,  -2647,   4897,  10801,    540, -16933,  10331,   7863,   6639,   -810,  -3306,   7085,  -7649,   8673, -13429,     80,   1065,   5130,   6298,   5013,   4081,  -7413,   4147,   7488,   -987,  -2806,  -8122,  15202,  10308,  -9092, -15478,  -4375,  -8631,   2518,   8382,  -3897,   7931,  -2650,  -2901,  -8421,  -5254,  11030,   2415,   -906,  -3325,   8379,    960,   5705,   8665,  -8783,  -1603,  -3647, -11434,    617,  13556,    723,   3831,  -4865, -11790,   2943, -13592,  -6305,   2312,   9365,    137,   4173,   -606,   8058, -10087,  -7713,   6558,     -8,  -2618,   -282,  -4814,  -2232,   2641,   7208,  11153,  -4871,   5001,   2318, -12747, -12050,  -4501,  15227,   7848,  -1990,   2238,   8186,  -3371, -10922,  -6651,   9603,    184,  -9134,   1313,  10268,  -5854, -11620,   2448,  -1986,  12264,   9504,   -708,   5264,  -2263,  14977, -11557,  15279, -14822, -10291,   9175,  -7403,   2758,  12531,   1033,   -206,  -3491,   2309,   4351,  -3212, -24226,  -1424,   9604,  -1218,  12218,   1135,  -7736,   1871,  -2410,  15981, -11736,   3310,  11559,  -9319,  -5427,    -20,  10147,   1115,   3259,   7611,   2706,  -7158,  24720, -10917,  -1639,  -1718,  -4676,  -3861, -10172,  -8359,   -522,   -758,  -4420,  13126,   1179,    168,  10120,   4277, -10773,  -5162,  -4501,   2534,   2587,   4549,  -1186,   -180,   -278, -12671,  -1594,   7166,   3709,  -8450,   1372,   4189,  -7900,  10730,  -1754,   1097,   3693,   7849,   8873,  -8340,   5592,  -6749,  -9798,  10092,   -851,   5727, -13706,   9554,   2231,   2646,    357,  22583,   5895, -19103, -10383, -11781,  12651,   5625,   9317,  -1667,   7552,  12910,   -703, -11050,   4088,    151, -11856,  -3334,  -2522,  -5842,  -4344,  13856,  -1175,   2576,  -8016,  -4094,  -2227,   2829,  -9099, -15205,   4705,   3566, -13697,   3539,   9780,  -3673,   6351,   5182,   2387,   6898,  -4527,   -909,  15140,  -6393,   -664,   -697,  -2618,   2742, -12834,  -5448,   1476, -16235, -15193,  -2758,  -7895,  -3480,  -4233,  -3265,   2198,  -1301, -14346,   8041,  -2195,  -5657, -14681,  -9144,   2052,  -1020, -14210,   8483,   2158,  -2155,   2026, -13735,    -33,  -8515,   4547, -26993,  -2978,  -8865, -10975,  -5435,  10834, -10074, -25342,   -391,   9015,   3788,  10458, -11293,  -4123, -11675,   6391, -10511,   5501,   9279,  17234,   9826,  -1013,   -949,    -30,  -9973,  -8304,   5597,   9494,   5702,   -809,  -7917,  -7391,   2546,  -2046,   4552,  -2066, -12417,   6347, -10610, -11084,  -7076,  -2624,  16408,   3129,   3779,   1094,    452,   4576, -10623,  -1414,  -2606, -15072,  -2924,  13168, -11687,    493,  -3086,   2451,  11732,  14403,   1190,   4937,  -2936,  -8899,  -5858,  -7811,  11700,  11406,   8137,   7751,  -9454,   3381,   5026,  -6485,  -3560,   5232,   3710,  -4643,   5099,  -5332,   8663,   1749,  -2459,  16542, -11951,  17796,   7663,   8100,  -9146,    328,  -2818,   6983,   3242,  -4470,    442,  -2281,  18533, -24163,  -7487,  -7339,   -497,   1623,   -601,   1709,   4224,   2121,   8035,   1930,   3990,   3666,  -3424,   1891,  -9438,  12750,  -1483,  -2354,   3983,  -4943,  20530,  -4068,   3902, -26117,   9171, -15585,   -858,  12323,  -2509,   7301,   8203, -14604,   1469,  -7048,  -7583,  -4198,  -4490, -21046, -11403,   -591,  -1196, -13114,    365,   1457,   4313,   -721,  -1955,   -509, -11240,     83,   2650,  -3264,   -355,   -296,  -1059,  -5581,  20128,  -8444,   -366,  -2290,   1197, -16625,  -6546,   -263,  -8452,   -140,   3513,   3075, -11154,   2308,   1109,  -3821,  21255,   1575, -22702,  -6864,  -9765, -11604,  11591,   2597,  -5808,  -4791,    482};

    const static Filter<int16_t> l3_d_compress_filter(l3_d_compress_filter_element, -15, {1, 1, 32, 32}, {1, 1});
    const Filter<int16_t> *get_l3_d_compress_filter()
    {
    	return &l3_d_compress_filter;
    }

    const static __attribute__((aligned(16))) int16_t l3_d_compress_bias_element[] = {
